<?xml version="1.0"?>
<opencv_storage>
<cascade>
  <stageType>BOOST</stageType>
  <featureType>HAAR</featureType>
  <height>20</height>
  <width>24</width>
  <stageParams>
    <boostType>GAB</boostType>
    <minHitRate>9.9500000476837158e-01</minHitRate>
    <maxFalseAlarm>5.0000000000000000e-01</maxFalseAlarm>
    <weightTrimRate>9.4999998807907104e-01</weightTrimRate>
    <maxDepth>1</maxDepth>
    <maxWeakCount>100</maxWeakCount></stageParams>
  <featureParams>
    <maxCatCount>0</maxCatCount>
    <featSize>1</featSize>
    <mode>BASIC</mode></featureParams>
  <stageNum>20</stageNum>
  <stages>
    <!-- stage 0 -->
    <_>
      <maxWeakCount>5</maxWeakCount>
      <stageThreshold>-8.9642411470413208e-01</stageThreshold>
      <weakClassifiers>
        <_>
          <internalNodes>
            0 -1 45 8.8679328560829163e-02</internalNodes>
          <leafValues>
            -6.4539009332656860e-01 8.4615385532379150e-01</leafValues></_>
        <_>
          <internalNodes>
            0 -1 31 4.4491549488157034e-04</internalNodes>
          <leafValues>
            3.8926410675048828e-01 -7.6289635896682739e-01</leafValues></_>
        <_>
          <internalNodes>
            0 -1 56 4.4763840734958649e-02</internalNodes>
          <leafValues>
            -3.5237526893615723e-01 8.8155108690261841e-01</leafValues></_>
        <_>
          <internalNodes>
            0 -1 110 8.1161642447113991e-04</internalNodes>
          <leafValues>
            4.2896100878715515e-01 -8.0999314785003662e-01</leafValues></_>
        <_>
          <internalNodes>
            0 -1 109 -1.1647227220237255e-03</internalNodes>
          <leafValues>
            -8.0182278156280518e-01 4.3527653813362122e-01</leafValues></_></weakClassifiers></_>
    <!-- stage 1 -->
    <_>
      <maxWeakCount>5</maxWeakCount>
      <stageThreshold>-8.7613624334335327e-01</stageThreshold>
      <weakClassifiers>
        <_>
          <internalNodes>
            0 -1 11 7.3116272687911987e-02</internalNodes>
          <leafValues>
            -5.1948052644729614e-01 8.4615385532379150e-01</leafValues></_>
        <_>
          <internalNodes>
            0 -1 108 8.4341788897290826e-04</internalNodes>
          <leafValues>
            5.0098460912704468e-01 -6.7105376720428467e-01</leafValues></_>
        <_>
          <internalNodes>
            0 -1 49 8.0375012475997210e-04</internalNodes>
          <leafValues>
            3.2690134644508362e-01 -8.7302172183990479e-01</leafValues></_>
        <_>
          <internalNodes>
            0 -1 50 2.0119266584515572e-02</internalNodes>
          <leafValues>
            -4.0178179740905762e-01 7.8992515802383423e-01</leafValues></_>
        <_>
          <internalNodes>
            0 -1 4 1.9026449881494045e-03</internalNodes>
          <leafValues>
            4.1716319322586060e-01 -7.1047401428222656e-01</leafValues></_></weakClassifiers></_>
    <!-- stage 2 -->
    <_>
      <maxWeakCount>4</maxWeakCount>
      <stageThreshold>-2.0640397071838379e-01</stageThreshold>
      <weakClassifiers>
        <_>
          <internalNodes>
            0 -1 7 1.1138165742158890e-01</internalNodes>
          <leafValues>
            -4.8466256260871887e-01 9.4202899932861328e-01</leafValues></_>
        <_>
          <internalNodes>
            0 -1 24 1.8004664778709412e-01</internalNodes>
          <leafValues>
            -3.1842476129531860e-01 8.0283427238464355e-01</leafValues></_>
        <_>
          <internalNodes>
            0 -1 5 -3.2869293354451656e-03</internalNodes>
          <leafValues>
            -7.1945220232009888e-01 4.2400011420249939e-01</leafValues></_>
        <_>
          <internalNodes>
            0 -1 17 -3.9019709220156074e-04</internalNodes>
          <leafValues>
            -1. 1.9487652182579041e-01</leafValues></_></weakClassifiers></_>
    <!-- stage 3 -->
    <_>
      <maxWeakCount>5</maxWeakCount>
      <stageThreshold>-1.0588061809539795e+00</stageThreshold>
      <weakClassifiers>
        <_>
          <internalNodes>
            0 -1 8 9.6254706382751465e-02</internalNodes>
          <leafValues>
            -5.2317881584167480e-01 8.0246913433074951e-01</leafValues></_>
        <_>
          <internalNodes>
            0 -1 63 -6.9330353289842606e-03</internalNodes>
          <leafValues>
            -9.0948832035064697e-01 3.1101453304290771e-01</leafValues></_>
        <_>
          <internalNodes>
            0 -1 118 -6.9413264282047749e-04</internalNodes>
          <leafValues>
            -8.1627571582794189e-01 2.8891971707344055e-01</leafValues></_>
        <_>
          <internalNodes>
            0 -1 3 1.9268462061882019e-01</internalNodes>
          <leafValues>
            -3.5656550526618958e-01 8.3027893304824829e-01</leafValues></_>
        <_>
          <internalNodes>
            0 -1 14 1.2173512950539589e-03</internalNodes>
          <leafValues>
            3.2619932293891907e-01 -9.0027546882629395e-01</leafValues></_></weakClassifiers></_>
    <!-- stage 4 -->
    <_>
      <maxWeakCount>6</maxWeakCount>
      <stageThreshold>-5.5717325210571289e-01</stageThreshold>
      <weakClassifiers>
        <_>
          <internalNodes>
            0 -1 26 1.1468057520687580e-02</internalNodes>
          <leafValues>
            -5.8273380994796753e-01 7.2043013572692871e-01</leafValues></_>
        <_>
          <internalNodes>
            0 -1 39 -8.1005856394767761e-02</internalNodes>
          <leafValues>
            7.0301544666290283e-01 -3.7968489527702332e-01</leafValues></_>
        <_>
          <internalNodes>
            0 -1 18 4.7221829299814999e-04</internalNodes>
          <leafValues>
            3.2720264792442322e-01 -7.4979436397552490e-01</leafValues></_>
        <_>
          <internalNodes>
            0 -1 84 -1.7803985974751413e-04</internalNodes>
          <leafValues>
            6.3775783777236938e-01 -3.8586118817329407e-01</leafValues></_>
        <_>
          <internalNodes>
            0 -1 57 8.5401302203536034e-03</internalNodes>
          <leafValues>
            -2.1444498002529144e-01 9.3980664014816284e-01</leafValues></_>
        <_>
          <internalNodes>
            0 -1 52 6.2460191547870636e-03</internalNodes>
          <leafValues>
            -3.4527006745338440e-01 7.1321612596511841e-01</leafValues></_></weakClassifiers></_>
    <!-- stage 5 -->
    <_>
      <maxWeakCount>6</maxWeakCount>
      <stageThreshold>-8.9447677135467529e-01</stageThreshold>
      <weakClassifiers>
        <_>
          <internalNodes>
            0 -1 0 4.7373410314321518e-02</internalNodes>
          <leafValues>
            -5.8620691299438477e-01 4.6551725268363953e-01</leafValues></_>
        <_>
          <internalNodes>
            0 -1 48 2.8728879988193512e-02</internalNodes>
          <leafValues>
            -3.3369413018226624e-01 8.3178812265396118e-01</leafValues></_>
        <_>
          <internalNodes>
            0 -1 93 -2.1225833334028721e-03</internalNodes>
          <leafValues>
            4.9663877487182617e-01 -4.3122410774230957e-01</leafValues></_>
        <_>
          <internalNodes>
            0 -1 54 3.3261887729167938e-02</internalNodes>
          <leafValues>
            3.1289586424827576e-01 -7.0501786470413208e-01</leafValues></_>
        <_>
          <internalNodes>
            0 -1 51 1.2419102713465691e-03</internalNodes>
          <leafValues>
            -5.0319409370422363e-01 5.1768624782562256e-01</leafValues></_>
        <_>
          <internalNodes>
            0 -1 32 6.8432316184043884e-03</internalNodes>
          <leafValues>
            -2.8388291597366333e-01 8.1253302097320557e-01</leafValues></_></weakClassifiers></_>
    <!-- stage 6 -->
    <_>
      <maxWeakCount>5</maxWeakCount>
      <stageThreshold>-5.7758551836013794e-01</stageThreshold>
      <weakClassifiers>
        <_>
          <internalNodes>
            0 -1 13 1.5049928426742554e-01</internalNodes>
          <leafValues>
            -3.8461539149284363e-01 8.0952382087707520e-01</leafValues></_>
        <_>
          <internalNodes>
            0 -1 98 5.2450564689934254e-03</internalNodes>
          <leafValues>
            -2.2926002740859985e-01 7.9147696495056152e-01</leafValues></_>
        <_>
          <internalNodes>
            0 -1 75 6.9325328804552555e-03</internalNodes>
          <leafValues>
            -2.7848011255264282e-01 7.9957199096679688e-01</leafValues></_>
        <_>
          <internalNodes>
            0 -1 101 1.7611093353480101e-03</internalNodes>
          <leafValues>
            -3.9196133613586426e-01 5.9512573480606079e-01</leafValues></_>
        <_>
          <internalNodes>
            0 -1 100 -2.0183688029646873e-03</internalNodes>
          <leafValues>
            7.0673131942749023e-01 -2.5932061672210693e-01</leafValues></_></weakClassifiers></_>
    <!-- stage 7 -->
    <_>
      <maxWeakCount>7</maxWeakCount>
      <stageThreshold>-6.0776770114898682e-01</stageThreshold>
      <weakClassifiers>
        <_>
          <internalNodes>
            0 -1 19 2.3807389661669731e-02</internalNodes>
          <leafValues>
            -3.5329341888427734e-01 6.9230771064758301e-01</leafValues></_>
        <_>
          <internalNodes>
            0 -1 60 -1.5063723549246788e-02</internalNodes>
          <leafValues>
            -1. 1.8178942799568176e-01</leafValues></_>
        <_>
          <internalNodes>
            0 -1 62 8.6681498214602470e-04</internalNodes>
          <leafValues>
            -3.4759932756423950e-01 6.1906462907791138e-01</leafValues></_>
        <_>
          <internalNodes>
            0 -1 69 2.2576870396733284e-02</internalNodes>
          <leafValues>
            -2.3619140684604645e-01 7.5416105985641479e-01</leafValues></_>
        <_>
          <internalNodes>
            0 -1 82 3.6950344219803810e-03</internalNodes>
          <leafValues>
            -2.9322886466979980e-01 7.0208472013473511e-01</leafValues></_>
        <_>
          <internalNodes>
            0 -1 90 -1.4497044030576944e-03</internalNodes>
          <leafValues>
            8.2749718427658081e-01 -1.8676273524761200e-01</leafValues></_>
        <_>
          <internalNodes>
            0 -1 2 -5.8623507618904114e-02</internalNodes>
          <leafValues>
            6.2751859426498413e-01 -3.1434914469718933e-01</leafValues></_></weakClassifiers></_>
    <!-- stage 8 -->
    <_>
      <maxWeakCount>5</maxWeakCount>
      <stageThreshold>-4.1899958252906799e-01</stageThreshold>
      <weakClassifiers>
        <_>
          <internalNodes>
            0 -1 6 1.0784841328859329e-01</internalNodes>
          <leafValues>
            -4.7019866108894348e-01 7.0370370149612427e-01</leafValues></_>
        <_>
          <internalNodes>
            0 -1 105 2.2853430360555649e-02</internalNodes>
          <leafValues>
            -2.4097026884555817e-01 6.9903600215911865e-01</leafValues></_>
        <_>
          <internalNodes>
            0 -1 44 2.4052539083641022e-04</internalNodes>
          <leafValues>
            -5.6659835577011108e-01 3.2097420096397400e-01</leafValues></_>
        <_>
          <internalNodes>
            0 -1 59 -2.9853968881070614e-03</internalNodes>
          <leafValues>
            6.6208624839782715e-01 -2.4201174080371857e-01</leafValues></_>
        <_>
          <internalNodes>
            0 -1 42 -1.9787974655628204e-02</internalNodes>
          <leafValues>
            -8.9862877130508423e-01 2.1320690214633942e-01</leafValues></_></weakClassifiers></_>
    <!-- stage 9 -->
    <_>
      <maxWeakCount>6</maxWeakCount>
      <stageThreshold>-4.8079043626785278e-01</stageThreshold>
      <weakClassifiers>
        <_>
          <internalNodes>
            0 -1 9 -1.3949075713753700e-02</internalNodes>
          <leafValues>
            6.7647057771682739e-01 -3.6585366725921631e-01</leafValues></_>
        <_>
          <internalNodes>
            0 -1 96 1.5620099147781730e-03</internalNodes>
          <leafValues>
            -2.4845081567764282e-01 7.2936576604843140e-01</leafValues></_>
        <_>
          <internalNodes>
            0 -1 77 1.2031728401780128e-03</internalNodes>
          <leafValues>
            -2.6280638575553894e-01 7.8295856714248657e-01</leafValues></_>
        <_>
          <internalNodes>
            0 -1 1 1.3979176059365273e-02</internalNodes>
          <leafValues>
            -6.3045394420623779e-01 3.6545696854591370e-01</leafValues></_>
        <_>
          <internalNodes>
            0 -1 107 3.9376914501190186e-03</internalNodes>
          <leafValues>
            -2.8761801123619080e-01 8.1106120347976685e-01</leafValues></_>
        <_>
          <internalNodes>
            0 -1 81 -1.9991207867860794e-02</internalNodes>
          <leafValues>
            -9.1297829151153564e-01 3.3657580614089966e-01</leafValues></_></weakClassifiers></_>
    <!-- stage 10 -->
    <_>
      <maxWeakCount>6</maxWeakCount>
      <stageThreshold>-1.0604815483093262e+00</stageThreshold>
      <weakClassifiers>
        <_>
          <internalNodes>
            0 -1 92 -8.7600480765104294e-04</internalNodes>
          <leafValues>
            8.1818181276321411e-01 -3.3333334326744080e-01</leafValues></_>
        <_>
          <internalNodes>
            0 -1 113 3.2528517767786980e-03</internalNodes>
          <leafValues>
            5.5217826366424561e-01 -3.7439566850662231e-01</leafValues></_>
        <_>
          <internalNodes>
            0 -1 106 -1.4811978908255696e-03</internalNodes>
          <leafValues>
            6.4907461404800415e-01 -3.9364001154899597e-01</leafValues></_>
        <_>
          <internalNodes>
            0 -1 43 3.8979947566986084e-03</internalNodes>
          <leafValues>
            -2.4614019691944122e-01 8.0264735221862793e-01</leafValues></_>
        <_>
          <internalNodes>
            0 -1 37 -1.0300469875801355e-04</internalNodes>
          <leafValues>
            6.2565720081329346e-01 -3.5518962144851685e-01</leafValues></_>
        <_>
          <internalNodes>
            0 -1 91 1.3627253938466311e-03</internalNodes>
          <leafValues>
            -3.3862951397895813e-01 7.5050312280654907e-01</leafValues></_></weakClassifiers></_>
    <!-- stage 11 -->
    <_>
      <maxWeakCount>5</maxWeakCount>
      <stageThreshold>-3.3298456668853760e-01</stageThreshold>
      <weakClassifiers>
        <_>
          <internalNodes>
            0 -1 33 4.3889647349715233e-03</internalNodes>
          <leafValues>
            2.0000000298023224e-01 -7.7419352531433105e-01</leafValues></_>
        <_>
          <internalNodes>
            0 -1 65 2.7901451103389263e-03</internalNodes>
          <leafValues>
            -2.6966407895088196e-01 7.8939807415008545e-01</leafValues></_>
        <_>
          <internalNodes>
            0 -1 83 2.5208005681633949e-03</internalNodes>
          <leafValues>
            -2.2505754232406616e-01 7.2421771287918091e-01</leafValues></_>
        <_>
          <internalNodes>
            0 -1 79 -2.4810889735817909e-03</internalNodes>
          <leafValues>
            6.8519306182861328e-01 -2.7154329419136047e-01</leafValues></_>
        <_>
          <internalNodes>
            0 -1 34 9.6854864386841655e-04</internalNodes>
          <leafValues>
            2.8861293196678162e-01 -7.1599489450454712e-01</leafValues></_></weakClassifiers></_>
    <!-- stage 12 -->
    <_>
      <maxWeakCount>7</maxWeakCount>
      <stageThreshold>-1.0887941122055054e+00</stageThreshold>
      <weakClassifiers>
        <_>
          <internalNodes>
            0 -1 16 1.3221835717558861e-02</internalNodes>
          <leafValues>
            -3.7931033968925476e-01 4.7126436233520508e-01</leafValues></_>
        <_>
          <internalNodes>
            0 -1 104 8.1994256470352411e-04</internalNodes>
          <leafValues>
            -3.4040391445159912e-01 4.3295365571975708e-01</leafValues></_>
        <_>
          <internalNodes>
            0 -1 47 -8.6201343219727278e-04</internalNodes>
          <leafValues>
            6.5852391719818115e-01 -2.4364714324474335e-01</leafValues></_>
        <_>
          <internalNodes>
            0 -1 80 1.8355383072048426e-03</internalNodes>
          <leafValues>
            -3.4985703229904175e-01 4.5994660258293152e-01</leafValues></_>
        <_>
          <internalNodes>
            0 -1 114 -1.2725046835839748e-03</internalNodes>
          <leafValues>
            -6.8335801362991333e-01 2.4855194985866547e-01</leafValues></_>
        <_>
          <internalNodes>
            0 -1 85 -1.7042248509824276e-03</internalNodes>
          <leafValues>
            3.6317422986030579e-01 -4.9714770913124084e-01</leafValues></_>
        <_>
          <internalNodes>
            0 -1 71 -2.1966728381812572e-03</internalNodes>
          <leafValues>
            5.6035196781158447e-01 -4.2915093898773193e-01</leafValues></_></weakClassifiers></_>
    <!-- stage 13 -->
    <_>
      <maxWeakCount>5</maxWeakCount>
      <stageThreshold>-5.0841218233108521e-01</stageThreshold>
      <weakClassifiers>
        <_>
          <internalNodes>
            0 -1 27 1.6053134202957153e-01</internalNodes>
          <leafValues>
            -3.1111112236976624e-01 8.0769228935241699e-01</leafValues></_>
        <_>
          <internalNodes>
            0 -1 28 6.6042266553267837e-04</internalNodes>
          <leafValues>
            2.6685279607772827e-01 -6.8338698148727417e-01</leafValues></_>
        <_>
          <internalNodes>
            0 -1 35 -6.8529397249221802e-03</internalNodes>
          <leafValues>
            3.8451895117759705e-01 -4.1002285480499268e-01</leafValues></_>
        <_>
          <internalNodes>
            0 -1 15 -2.0355517044663429e-03</internalNodes>
          <leafValues>
            4.9283212423324585e-01 -3.8066449761390686e-01</leafValues></_>
        <_>
          <internalNodes>
            0 -1 74 2.7011029422283173e-02</internalNodes>
          <leafValues>
            -3.9126518368721008e-01 4.6291181445121765e-01</leafValues></_></weakClassifiers></_>
    <!-- stage 14 -->
    <_>
      <maxWeakCount>6</maxWeakCount>
      <stageThreshold>-8.1613332033157349e-01</stageThreshold>
      <weakClassifiers>
        <_>
          <internalNodes>
            0 -1 117 3.7208558060228825e-03</internalNodes>
          <leafValues>
            3.7599998712539673e-01 -5.7009345293045044e-01</leafValues></_>
        <_>
          <internalNodes>
            0 -1 99 1.7798738554120064e-03</internalNodes>
          <leafValues>
            -3.0900001525878906e-01 7.5086855888366699e-01</leafValues></_>
        <_>
          <internalNodes>
            0 -1 40 4.8263026401400566e-03</internalNodes>
          <leafValues>
            3.1622961163520813e-01 -7.1516627073287964e-01</leafValues></_>
        <_>
          <internalNodes>
            0 -1 66 -5.9081538347527385e-04</internalNodes>
          <leafValues>
            7.5637680292129517e-01 -2.6588320732116699e-01</leafValues></_>
        <_>
          <internalNodes>
            0 -1 95 -4.8439588863402605e-04</internalNodes>
          <leafValues>
            7.5546061992645264e-01 -2.6921737194061279e-01</leafValues></_>
        <_>
          <internalNodes>
            0 -1 73 9.2723444104194641e-03</internalNodes>
          <leafValues>
            2.8183108568191528e-01 -8.5163116455078125e-01</leafValues></_></weakClassifiers></_>
    <!-- stage 15 -->
    <_>
      <maxWeakCount>7</maxWeakCount>
      <stageThreshold>-1.0534468889236450e+00</stageThreshold>
      <weakClassifiers>
        <_>
          <internalNodes>
            0 -1 22 1.5551228076219559e-02</internalNodes>
          <leafValues>
            2.3870967328548431e-01 -6.6233766078948975e-01</leafValues></_>
        <_>
          <internalNodes>
            0 -1 78 -1.7139880583272316e-05</internalNodes>
          <leafValues>
            4.4885331392288208e-01 -3.9868810772895813e-01</leafValues></_>
        <_>
          <internalNodes>
            0 -1 103 5.3319257858674973e-05</internalNodes>
          <leafValues>
            -3.3818864822387695e-01 4.8662772774696350e-01</leafValues></_>
        <_>
          <internalNodes>
            0 -1 112 1.2683630920946598e-03</internalNodes>
          <leafValues>
            3.1233638525009155e-01 -7.0937359333038330e-01</leafValues></_>
        <_>
          <internalNodes>
            0 -1 10 -2.6776395738124847e-02</internalNodes>
          <leafValues>
            9.6573275327682495e-01 -2.6262483000755310e-01</leafValues></_>
        <_>
          <internalNodes>
            0 -1 12 4.0453478693962097e-02</internalNodes>
          <leafValues>
            -3.0217331647872925e-01 6.5002286434173584e-01</leafValues></_>
        <_>
          <internalNodes>
            0 -1 72 -2.3387762485072017e-04</internalNodes>
          <leafValues>
            5.1213318109512329e-01 -3.0281805992126465e-01</leafValues></_></weakClassifiers></_>
    <!-- stage 16 -->
    <_>
      <maxWeakCount>8</maxWeakCount>
      <stageThreshold>-8.6881893873214722e-01</stageThreshold>
      <weakClassifiers>
        <_>
          <internalNodes>
            0 -1 23 3.4033179283142090e-02</internalNodes>
          <leafValues>
            2.3178808391094208e-01 -6.0493826866149902e-01</leafValues></_>
        <_>
          <internalNodes>
            0 -1 97 1.2312006438151002e-03</internalNodes>
          <leafValues>
            -2.5489500164985657e-01 5.4902470111846924e-01</leafValues></_>
        <_>
          <internalNodes>
            0 -1 21 1.7727136146277189e-03</internalNodes>
          <leafValues>
            2.1045444905757904e-01 -6.9946575164794922e-01</leafValues></_>
        <_>
          <internalNodes>
            0 -1 68 1.3997615315020084e-03</internalNodes>
          <leafValues>
            -1.8179729580879211e-01 8.6574542522430420e-01</leafValues></_>
        <_>
          <internalNodes>
            0 -1 87 8.7436183821409941e-04</internalNodes>
          <leafValues>
            -2.1329967677593231e-01 6.0196852684020996e-01</leafValues></_>
        <_>
          <internalNodes>
            0 -1 46 3.3274084329605103e-02</internalNodes>
          <leafValues>
            1.5388037264347076e-01 -9.4760525226593018e-01</leafValues></_>
        <_>
          <internalNodes>
            0 -1 41 1.9619625527411699e-03</internalNodes>
          <leafValues>
            -5.8263868093490601e-01 2.6237404346466064e-01</leafValues></_>
        <_>
          <internalNodes>
            0 -1 30 -2.5801020674407482e-03</internalNodes>
          <leafValues>
            7.3831921815872192e-01 -2.4059760570526123e-01</leafValues></_></weakClassifiers></_>
    <!-- stage 17 -->
    <_>
      <maxWeakCount>6</maxWeakCount>
      <stageThreshold>-5.7703602313995361e-01</stageThreshold>
      <weakClassifiers>
        <_>
          <internalNodes>
            0 -1 115 -3.8054809556342661e-04</internalNodes>
          <leafValues>
            -6.1643832921981812e-01 1.9496855139732361e-01</leafValues></_>
        <_>
          <internalNodes>
            0 -1 67 1.9535389728844166e-03</internalNodes>
          <leafValues>
            -2.2908954322338104e-01 7.7021354436874390e-01</leafValues></_>
        <_>
          <internalNodes>
            0 -1 29 3.3083371818065643e-05</internalNodes>
          <leafValues>
            -3.3520987629890442e-01 4.8564615845680237e-01</leafValues></_>
        <_>
          <internalNodes>
            0 -1 36 7.9626077786087990e-03</internalNodes>
          <leafValues>
            -2.0470458269119263e-01 9.2441302537918091e-01</leafValues></_>
        <_>
          <internalNodes>
            0 -1 20 5.7964855805039406e-03</internalNodes>
          <leafValues>
            3.0786988139152527e-01 -6.6857260465621948e-01</leafValues></_>
        <_>
          <internalNodes>
            0 -1 94 5.1809228025376797e-03</internalNodes>
          <leafValues>
            -3.1070226430892944e-01 6.5612286329269409e-01</leafValues></_></weakClassifiers></_>
    <!-- stage 18 -->
    <_>
      <maxWeakCount>7</maxWeakCount>
      <stageThreshold>-5.5306231975555420e-01</stageThreshold>
      <weakClassifiers>
        <_>
          <internalNodes>
            0 -1 89 2.1839276887476444e-03</internalNodes>
          <leafValues>
            -2.7868852019309998e-01 7.5510203838348389e-01</leafValues></_>
        <_>
          <internalNodes>
            0 -1 70 2.9954174533486366e-03</internalNodes>
          <leafValues>
            -1.5844552218914032e-01 8.7969714403152466e-01</leafValues></_>
        <_>
          <internalNodes>
            0 -1 25 1.3023339211940765e-02</internalNodes>
          <leafValues>
            -2.6911863684654236e-01 5.5746310949325562e-01</leafValues></_>
        <_>
          <internalNodes>
            0 -1 86 4.8855999484658241e-03</internalNodes>
          <leafValues>
            -2.2321753203868866e-01 7.3682844638824463e-01</leafValues></_>
        <_>
          <internalNodes>
            0 -1 55 -1.2319195084273815e-03</internalNodes>
          <leafValues>
            7.6466983556747437e-01 -1.9649054110050201e-01</leafValues></_>
        <_>
          <internalNodes>
            0 -1 53 -3.1484819948673248e-02</internalNodes>
          <leafValues>
            -8.3838486671447754e-01 2.6030632853507996e-01</leafValues></_>
        <_>
          <internalNodes>
            0 -1 102 -1.1415977496653795e-03</internalNodes>
          <leafValues>
            4.5012289285659790e-01 -3.7326645851135254e-01</leafValues></_></weakClassifiers></_>
    <!-- stage 19 -->
    <_>
      <maxWeakCount>8</maxWeakCount>
      <stageThreshold>-6.0171240568161011e-01</stageThreshold>
      <weakClassifiers>
        <_>
          <internalNodes>
            0 -1 58 2.4906262755393982e-02</internalNodes>
          <leafValues>
            1.2994350492954254e-01 -6.7272728681564331e-01</leafValues></_>
        <_>
          <internalNodes>
            0 -1 111 -7.3998188599944115e-04</internalNodes>
          <leafValues>
            -5.3609192371368408e-01 2.2707660496234894e-01</leafValues></_>
        <_>
          <internalNodes>
            0 -1 88 4.6608762932009995e-04</internalNodes>
          <leafValues>
            -3.1324854493141174e-01 4.9093213677406311e-01</leafValues></_>
        <_>
          <internalNodes>
            0 -1 64 -4.3087704107165337e-03</internalNodes>
          <leafValues>
            8.6145955324172974e-01 -1.7781457304954529e-01</leafValues></_>
        <_>
          <internalNodes>
            0 -1 61 1.4533540233969688e-03</internalNodes>
          <leafValues>
            -1.9741544127464294e-01 7.4880152940750122e-01</leafValues></_>
        <_>
          <internalNodes>
            0 -1 116 1.4230345841497183e-03</internalNodes>
          <leafValues>
            2.7826163172721863e-01 -5.7015657424926758e-01</leafValues></_>
        <_>
          <internalNodes>
            0 -1 76 3.1892504543066025e-02</internalNodes>
          <leafValues>
            -2.3387144505977631e-01 7.0884966850280762e-01</leafValues></_>
        <_>
          <internalNodes>
            0 -1 38 -4.8957001417875290e-03</internalNodes>
          <leafValues>
            5.5325555801391602e-01 -3.1464412808418274e-01</leafValues></_></weakClassifiers></_></stages>
  <features>
    <_>
      <rects>
        <_>
          0 0 19 10 -1.</_>
        <_>
          0 5 19 5 2.</_></rects>
      <tilted>0</tilted></_>
    <_>
      <rects>
        <_>
          0 0 24 8 -1.</_>
        <_>
          0 4 24 4 2.</_></rects>
      <tilted>0</tilted></_>
    <_>
      <rects>
        <_>
          0 1 9 18 -1.</_>
        <_>
          3 1 3 18 3.</_></rects>
      <tilted>0</tilted></_>
    <_>
      <rects>
        <_>
          0 1 17 18 -1.</_>
        <_>
          0 7 17 6 3.</_></rects>
      <tilted>0</tilted></_>
    <_>
      <rects>
        <_>
          0 2 2 13 -1.</_>
        <_>
          1 2 1 13 2.</_></rects>
      <tilted>0</tilted></_>
    <_>
      <rects>
        <_>
          0 4 3 11 -1.</_>
        <_>
          1 4 1 11 3.</_></rects>
      <tilted>0</tilted></_>
    <_>
      <rects>
        <_>
          0 5 12 9 -1.</_>
        <_>
          6 5 6 9 2.</_></rects>
      <tilted>0</tilted></_>
    <_>
      <rects>
        <_>
          0 5 16 7 -1.</_>
        <_>
          8 5 8 7 2.</_></rects>
      <tilted>0</tilted></_>
    <_>
      <rects>
        <_>
          0 7 12 9 -1.</_>
        <_>
          6 7 6 9 2.</_></rects>
      <tilted>0</tilted></_>
    <_>
      <rects>
        <_>
          0 8 6 8 -1.</_>
        <_>
          2 8 2 8 3.</_></rects>
      <tilted>0</tilted></_>
    <_>
      <rects>
        <_>
          0 8 12 5 -1.</_>
        <_>
          6 8 6 5 2.</_></rects>
      <tilted>0</tilted></_>
    <_>
      <rects>
        <_>
          0 8 14 5 -1.</_>
        <_>
          7 8 7 5 2.</_></rects>
      <tilted>0</tilted></_>
    <_>
      <rects>
        <_>
          0 9 15 5 -1.</_>
        <_>
          5 9 5 5 3.</_></rects>
      <tilted>0</tilted></_>
    <_>
      <rects>
        <_>
          0 10 21 6 -1.</_>
        <_>
          7 10 7 6 3.</_></rects>
      <tilted>0</tilted></_>
    <_>
      <rects>
        <_>
          0 11 4 2 -1.</_>
        <_>
          0 11 2 1 2.</_>
        <_>
          2 12 2 1 2.</_></rects>
      <tilted>0</tilted></_>
    <_>
      <rects>
        <_>
          0 12 6 4 -1.</_>
        <_>
          3 12 3 4 2.</_></rects>
      <tilted>0</tilted></_>
    <_>
      <rects>
        <_>
          0 12 10 1 -1.</_>
        <_>
          5 12 5 1 2.</_></rects>
      <tilted>0</tilted></_>
    <_>
      <rects>
        <_>
          0 13 2 2 -1.</_>
        <_>
          0 13 1 1 2.</_>
        <_>
          1 14 1 1 2.</_></rects>
      <tilted>0</tilted></_>
    <_>
      <rects>
        <_>
          0 14 2 1 -1.</_>
        <_>
          1 14 1 1 2.</_></rects>
      <tilted>0</tilted></_>
    <_>
      <rects>
        <_>
          0 14 14 1 -1.</_>
        <_>
          7 14 7 1 2.</_></rects>
      <tilted>0</tilted></_>
    <_>
      <rects>
        <_>
          0 18 12 2 -1.</_>
        <_>
          4 18 4 2 3.</_></rects>
      <tilted>0</tilted></_>
    <_>
      <rects>
        <_>
          1 0 3 4 -1.</_>
        <_>
          2 0 1 4 3.</_></rects>
      <tilted>0</tilted></_>
    <_>
      <rects>
        <_>
          1 0 2 20 -1.</_>
        <_>
          1 10 2 10 2.</_></rects>
      <tilted>0</tilted></_>
    <_>
      <rects>
        <_>
          1 1 22 18 -1.</_>
        <_>
          1 1 11 9 2.</_>
        <_>
          12 10 11 9 2.</_></rects>
      <tilted>0</tilted></_>
    <_>
      <rects>
        <_>
          1 1 21 18 -1.</_>
        <_>
          1 7 21 6 3.</_></rects>
      <tilted>0</tilted></_>
    <_>
      <rects>
        <_>
          1 2 8 6 -1.</_>
        <_>
          1 2 4 3 2.</_>
        <_>
          5 5 4 3 2.</_></rects>
      <tilted>0</tilted></_>
    <_>
      <rects>
        <_>
          1 4 12 4 -1.</_>
        <_>
          1 6 12 2 2.</_></rects>
      <tilted>0</tilted></_>
    <_>
      <rects>
        <_>
          1 10 12 8 -1.</_>
        <_>
          7 10 6 8 2.</_></rects>
      <tilted>0</tilted></_>
    <_>
      <rects>
        <_>
          1 11 2 2 -1.</_>
        <_>
          1 12 2 1 2.</_></rects>
      <tilted>0</tilted></_>
    <_>
      <rects>
        <_>
          1 13 3 4 -1.</_>
        <_>
          2 13 1 4 3.</_></rects>
      <tilted>0</tilted></_>
    <_>
      <rects>
        <_>
          1 13 21 1 -1.</_>
        <_>
          8 13 7 1 3.</_></rects>
      <tilted>0</tilted></_>
    <_>
      <rects>
        <_>
          1 15 2 2 -1.</_>
        <_>
          1 15 1 1 2.</_>
        <_>
          2 16 1 1 2.</_></rects>
      <tilted>0</tilted></_>
    <_>
      <rects>
        <_>
          2 6 14 3 -1.</_>
        <_>
          2 7 14 1 3.</_></rects>
      <tilted>0</tilted></_>
    <_>
      <rects>
        <_>
          2 12 4 6 -1.</_>
        <_>
          2 15 4 3 2.</_></rects>
      <tilted>0</tilted></_>
    <_>
      <rects>
        <_>
          2 13 2 3 -1.</_>
        <_>
          2 14 2 1 3.</_></rects>
      <tilted>0</tilted></_>
    <_>
      <rects>
        <_>
          2 14 6 6 -1.</_>
        <_>
          2 17 6 3 2.</_></rects>
      <tilted>0</tilted></_>
    <_>
      <rects>
        <_>
          3 10 2 5 -1.</_>
        <_>
          4 10 1 5 2.</_></rects>
      <tilted>0</tilted></_>
    <_>
      <rects>
        <_>
          3 12 2 2 -1.</_>
        <_>
          3 12 1 1 2.</_>
        <_>
          4 13 1 1 2.</_></rects>
      <tilted>0</tilted></_>
    <_>
      <rects>
        <_>
          4 0 20 4 -1.</_>
        <_>
          4 0 10 2 2.</_>
        <_>
          14 2 10 2 2.</_></rects>
      <tilted>0</tilted></_>
    <_>
      <rects>
        <_>
          4 12 16 8 -1.</_>
        <_>
          4 16 16 4 2.</_></rects>
      <tilted>0</tilted></_>
    <_>
      <rects>
        <_>
          5 1 9 2 -1.</_>
        <_>
          8 1 3 2 3.</_></rects>
      <tilted>0</tilted></_>
    <_>
      <rects>
        <_>
          5 4 8 5 -1.</_>
        <_>
          9 4 4 5 2.</_></rects>
      <tilted>0</tilted></_>
    <_>
      <rects>
        <_>
          5 8 12 4 -1.</_>
        <_>
          9 8 4 4 3.</_></rects>
      <tilted>0</tilted></_>
    <_>
      <rects>
        <_>
          5 9 3 5 -1.</_>
        <_>
          6 9 1 5 3.</_></rects>
      <tilted>0</tilted></_>
    <_>
      <rects>
        <_>
          5 14 16 6 -1.</_>
        <_>
          5 14 8 3 2.</_>
        <_>
          13 17 8 3 2.</_></rects>
      <tilted>0</tilted></_>
    <_>
      <rects>
        <_>
          6 2 12 18 -1.</_>
        <_>
          6 8 12 6 3.</_></rects>
      <tilted>0</tilted></_>
    <_>
      <rects>
        <_>
          6 6 12 3 -1.</_>
        <_>
          10 6 4 3 3.</_></rects>
      <tilted>0</tilted></_>
    <_>
      <rects>
        <_>
          6 9 3 1 -1.</_>
        <_>
          7 9 1 1 3.</_></rects>
      <tilted>0</tilted></_>
    <_>
      <rects>
        <_>
          6 9 14 6 -1.</_>
        <_>
          6 11 14 2 3.</_></rects>
      <tilted>0</tilted></_>
    <_>
      <rects>
        <_>
          7 1 3 1 -1.</_>
        <_>
          8 1 1 1 3.</_></rects>
      <tilted>0</tilted></_>
    <_>
      <rects>
        <_>
          7 1 2 16 -1.</_>
        <_>
          7 9 2 8 2.</_></rects>
      <tilted>0</tilted></_>
    <_>
      <rects>
        <_>
          7 1 8 1 -1.</_>
        <_>
          11 1 4 1 2.</_></rects>
      <tilted>0</tilted></_>
    <_>
      <rects>
        <_>
          7 2 2 6 -1.</_>
        <_>
          7 5 2 3 2.</_></rects>
      <tilted>0</tilted></_>
    <_>
      <rects>
        <_>
          7 6 10 10 -1.</_>
        <_>
          12 6 5 10 2.</_></rects>
      <tilted>0</tilted></_>
    <_>
      <rects>
        <_>
          7 10 10 9 -1.</_>
        <_>
          12 10 5 9 2.</_></rects>
      <tilted>0</tilted></_>
    <_>
      <rects>
        <_>
          7 12 2 2 -1.</_>
        <_>
          7 12 1 1 2.</_>
        <_>
          8 13 1 1 2.</_></rects>
      <tilted>0</tilted></_>
    <_>
      <rects>
        <_>
          8 0 12 8 -1.</_>
        <_>
          8 4 12 4 2.</_></rects>
      <tilted>0</tilted></_>
    <_>
      <rects>
        <_>
          8 3 3 13 -1.</_>
        <_>
          9 3 1 13 3.</_></rects>
      <tilted>0</tilted></_>
    <_>
      <rects>
        <_>
          8 6 6 12 -1.</_>
        <_>
          11 6 3 12 2.</_></rects>
      <tilted>0</tilted></_>
    <_>
      <rects>
        <_>
          8 9 3 5 -1.</_>
        <_>
          9 9 1 5 3.</_></rects>
      <tilted>0</tilted></_>
    <_>
      <rects>
        <_>
          8 9 8 3 -1.</_>
        <_>
          12 9 4 3 2.</_></rects>
      <tilted>0</tilted></_>
    <_>
      <rects>
        <_>
          8 14 2 2 -1.</_>
        <_>
          8 14 1 1 2.</_>
        <_>
          9 15 1 1 2.</_></rects>
      <tilted>0</tilted></_>
    <_>
      <rects>
        <_>
          8 14 3 3 -1.</_>
        <_>
          8 15 3 1 3.</_></rects>
      <tilted>0</tilted></_>
    <_>
      <rects>
        <_>
          9 4 4 9 -1.</_>
        <_>
          11 4 2 9 2.</_></rects>
      <tilted>0</tilted></_>
    <_>
      <rects>
        <_>
          9 5 2 13 -1.</_>
        <_>
          10 5 1 13 2.</_></rects>
      <tilted>0</tilted></_>
    <_>
      <rects>
        <_>
          9 7 2 6 -1.</_>
        <_>
          9 7 1 3 2.</_>
        <_>
          10 10 1 3 2.</_></rects>
      <tilted>0</tilted></_>
    <_>
      <rects>
        <_>
          9 9 2 4 -1.</_>
        <_>
          9 9 1 2 2.</_>
        <_>
          10 11 1 2 2.</_></rects>
      <tilted>0</tilted></_>
    <_>
      <rects>
        <_>
          9 9 4 2 -1.</_>
        <_>
          9 9 2 1 2.</_>
        <_>
          11 10 2 1 2.</_></rects>
      <tilted>0</tilted></_>
    <_>
      <rects>
        <_>
          9 10 2 2 -1.</_>
        <_>
          9 10 1 1 2.</_>
        <_>
          10 11 1 1 2.</_></rects>
      <tilted>0</tilted></_>
    <_>
      <rects>
        <_>
          9 10 6 6 -1.</_>
        <_>
          9 12 6 2 3.</_></rects>
      <tilted>0</tilted></_>
    <_>
      <rects>
        <_>
          9 13 3 1 -1.</_>
        <_>
          10 13 1 1 3.</_></rects>
      <tilted>0</tilted></_>
    <_>
      <rects>
        <_>
          10 4 12 2 -1.</_>
        <_>
          10 4 6 1 2.</_>
        <_>
          16 5 6 1 2.</_></rects>
      <tilted>0</tilted></_>
    <_>
      <rects>
        <_>
          10 6 2 2 -1.</_>
        <_>
          10 6 1 1 2.</_>
        <_>
          11 7 1 1 2.</_></rects>
      <tilted>0</tilted></_>
    <_>
      <rects>
        <_>
          10 7 6 12 -1.</_>
        <_>
          13 7 3 12 2.</_></rects>
      <tilted>0</tilted></_>
    <_>
      <rects>
        <_>
          10 8 14 12 -1.</_>
        <_>
          10 8 7 6 2.</_>
        <_>
          17 14 7 6 2.</_></rects>
      <tilted>0</tilted></_>
    <_>
      <rects>
        <_>
          10 9 13 3 -1.</_>
        <_>
          10 10 13 1 3.</_></rects>
      <tilted>0</tilted></_>
    <_>
      <rects>
        <_>
          10 10 5 9 -1.</_>
        <_>
          10 13 5 3 3.</_></rects>
      <tilted>0</tilted></_>
    <_>
      <rects>
        <_>
          10 12 3 1 -1.</_>
        <_>
          11 12 1 1 3.</_></rects>
      <tilted>0</tilted></_>
    <_>
      <rects>
        <_>
          10 14 3 2 -1.</_>
        <_>
          11 14 1 2 3.</_></rects>
      <tilted>0</tilted></_>
    <_>
      <rects>
        <_>
          11 6 3 7 -1.</_>
        <_>
          12 6 1 7 3.</_></rects>
      <tilted>0</tilted></_>
    <_>
      <rects>
        <_>
          11 7 9 2 -1.</_>
        <_>
          11 8 9 1 2.</_></rects>
      <tilted>0</tilted></_>
    <_>
      <rects>
        <_>
          11 8 8 4 -1.</_>
        <_>
          15 8 4 4 2.</_></rects>
      <tilted>0</tilted></_>
    <_>
      <rects>
        <_>
          11 9 4 3 -1.</_>
        <_>
          11 10 4 1 3.</_></rects>
      <tilted>0</tilted></_>
    <_>
      <rects>
        <_>
          11 10 3 6 -1.</_>
        <_>
          12 10 1 6 3.</_></rects>
      <tilted>0</tilted></_>
    <_>
      <rects>
        <_>
          11 11 2 1 -1.</_>
        <_>
          12 11 1 1 2.</_></rects>
      <tilted>0</tilted></_>
    <_>
      <rects>
        <_>
          12 0 6 17 -1.</_>
        <_>
          15 0 3 17 2.</_></rects>
      <tilted>0</tilted></_>
    <_>
      <rects>
        <_>
          12 5 3 7 -1.</_>
        <_>
          13 5 1 7 3.</_></rects>
      <tilted>0</tilted></_>
    <_>
      <rects>
        <_>
          12 7 2 6 -1.</_>
        <_>
          12 7 1 3 2.</_>
        <_>
          13 10 1 3 2.</_></rects>
      <tilted>0</tilted></_>
    <_>
      <rects>
        <_>
          12 7 2 4 -1.</_>
        <_>
          13 7 1 4 2.</_></rects>
      <tilted>0</tilted></_>
    <_>
      <rects>
        <_>
          12 7 3 2 -1.</_>
        <_>
          12 8 3 1 2.</_></rects>
      <tilted>0</tilted></_>
    <_>
      <rects>
        <_>
          12 9 1 3 -1.</_>
        <_>
          12 10 1 1 3.</_></rects>
      <tilted>0</tilted></_>
    <_>
      <rects>
        <_>
          12 9 3 3 -1.</_>
        <_>
          13 9 1 3 3.</_></rects>
      <tilted>0</tilted></_>
    <_>
      <rects>
        <_>
          12 12 3 1 -1.</_>
        <_>
          13 12 1 1 3.</_></rects>
      <tilted>0</tilted></_>
    <_>
      <rects>
        <_>
          12 13 1 6 -1.</_>
        <_>
          12 16 1 3 2.</_></rects>
      <tilted>0</tilted></_>
    <_>
      <rects>
        <_>
          13 2 3 12 -1.</_>
        <_>
          14 2 1 12 3.</_></rects>
      <tilted>0</tilted></_>
    <_>
      <rects>
        <_>
          13 6 2 2 -1.</_>
        <_>
          13 6 1 1 2.</_>
        <_>
          14 7 1 1 2.</_></rects>
      <tilted>0</tilted></_>
    <_>
      <rects>
        <_>
          13 6 2 7 -1.</_>
        <_>
          14 6 1 7 2.</_></rects>
      <tilted>0</tilted></_>
    <_>
      <rects>
        <_>
          13 9 2 4 -1.</_>
        <_>
          13 9 1 2 2.</_>
        <_>
          14 11 1 2 2.</_></rects>
      <tilted>0</tilted></_>
    <_>
      <rects>
        <_>
          13 10 7 3 -1.</_>
        <_>
          13 11 7 1 3.</_></rects>
      <tilted>0</tilted></_>
    <_>
      <rects>
        <_>
          13 11 3 2 -1.</_>
        <_>
          14 11 1 2 3.</_></rects>
      <tilted>0</tilted></_>
    <_>
      <rects>
        <_>
          14 6 3 7 -1.</_>
        <_>
          15 6 1 7 3.</_></rects>
      <tilted>0</tilted></_>
    <_>
      <rects>
        <_>
          14 10 1 6 -1.</_>
        <_>
          14 12 1 2 3.</_></rects>
      <tilted>0</tilted></_>
    <_>
      <rects>
        <_>
          15 9 2 11 -1.</_>
        <_>
          16 9 1 11 2.</_></rects>
      <tilted>0</tilted></_>
    <_>
      <rects>
        <_>
          15 16 1 2 -1.</_>
        <_>
          15 17 1 1 2.</_></rects>
      <tilted>0</tilted></_>
    <_>
      <rects>
        <_>
          16 5 8 1 -1.</_>
        <_>
          20 5 4 1 2.</_></rects>
      <tilted>0</tilted></_>
    <_>
      <rects>
        <_>
          16 7 8 13 -1.</_>
        <_>
          20 7 4 13 2.</_></rects>
      <tilted>0</tilted></_>
    <_>
      <rects>
        <_>
          16 11 3 3 -1.</_>
        <_>
          17 11 1 3 3.</_></rects>
      <tilted>0</tilted></_>
    <_>
      <rects>
        <_>
          17 7 3 5 -1.</_>
        <_>
          18 7 1 5 3.</_></rects>
      <tilted>0</tilted></_>
    <_>
      <rects>
        <_>
          18 17 3 2 -1.</_>
        <_>
          19 17 1 2 3.</_></rects>
      <tilted>0</tilted></_>
    <_>
      <rects>
        <_>
          18 17 3 3 -1.</_>
        <_>
          19 17 1 3 3.</_></rects>
      <tilted>0</tilted></_>
    <_>
      <rects>
        <_>
          19 13 3 3 -1.</_>
        <_>
          20 13 1 3 3.</_></rects>
      <tilted>0</tilted></_>
    <_>
      <rects>
        <_>
          20 4 4 1 -1.</_>
        <_>
          22 4 2 1 2.</_></rects>
      <tilted>0</tilted></_>
    <_>
      <rects>
        <_>
          20 7 3 2 -1.</_>
        <_>
          20 8 3 1 2.</_></rects>
      <tilted>0</tilted></_>
    <_>
      <rects>
        <_>
          21 1 1 18 -1.</_>
        <_>
          21 7 1 6 3.</_></rects>
      <tilted>0</tilted></_>
    <_>
      <rects>
        <_>
          21 14 2 6 -1.</_>
        <_>
          21 14 1 3 2.</_>
        <_>
          22 17 1 3 2.</_></rects>
      <tilted>0</tilted></_>
    <_>
      <rects>
        <_>
          22 7 1 2 -1.</_>
        <_>
          22 8 1 1 2.</_></rects>
      <tilted>0</tilted></_>
    <_>
      <rects>
        <_>
          22 12 2 8 -1.</_>
        <_>
          22 12 1 4 2.</_>
        <_>
          23 16 1 4 2.</_></rects>
      <tilted>0</tilted></_>
    <_>
      <rects>
        <_>
          23 0 1 14 -1.</_>
        <_>
          23 7 1 7 2.</_></rects>
      <tilted>0</tilted></_>
    <_>
      <rects>
        <_>
          23 6 1 3 -1.</_>
        <_>
          23 7 1 1 3.</_></rects>
      <tilted>0</tilted></_></features></cascade>
</opencv_storage>
