<?xml version="1.0"?>
<opencv_storage>
<cascade>
  <stageType>BOOST</stageType>
  <featureType>HAAR</featureType>
  <height>20</height>
  <width>24</width>
  <stageParams>
    <boostType>GAB</boostType>
    <minHitRate>9.9500000476837158e-01</minHitRate>
    <maxFalseAlarm>5.0000000000000000e-01</maxFalseAlarm>
    <weightTrimRate>9.4999998807907104e-01</weightTrimRate>
    <maxDepth>1</maxDepth>
    <maxWeakCount>100</maxWeakCount></stageParams>
  <featureParams>
    <maxCatCount>0</maxCatCount>
    <featSize>1</featSize>
    <mode>BASIC</mode></featureParams>
  <stageNum>15</stageNum>
  <stages>
    <!-- stage 0 -->
    <_>
      <maxWeakCount>6</maxWeakCount>
      <stageThreshold>-1.8671483993530273e+00</stageThreshold>
      <weakClassifiers>
        <_>
          <internalNodes>
            0 -1 26 1.2840080261230469e-01</internalNodes>
          <leafValues>
            -9.4208496809005737e-01 -2.2834645211696625e-01</leafValues></_>
        <_>
          <internalNodes>
            0 -1 115 -1.4754238538444042e-02</internalNodes>
          <leafValues>
            -1.2773050367832184e-01 -8.2987856864929199e-01</leafValues></_>
        <_>
          <internalNodes>
            0 -1 56 7.8923925757408142e-03</internalNodes>
          <leafValues>
            -4.2373821139335632e-01 4.2730394005775452e-01</leafValues></_>
        <_>
          <internalNodes>
            0 -1 50 3.3644777722656727e-03</internalNodes>
          <leafValues>
            -3.1844818592071533e-01 4.7371053695678711e-01</leafValues></_>
        <_>
          <internalNodes>
            0 -1 54 -1.2863436713814735e-02</internalNodes>
          <leafValues>
            -8.3811861276626587e-01 1.6335955262184143e-01</leafValues></_>
        <_>
          <internalNodes>
            0 -1 94 3.7574116140604019e-03</internalNodes>
          <leafValues>
            -2.1850603818893433e-01 5.6278288364410400e-01</leafValues></_></weakClassifiers></_>
    <!-- stage 1 -->
    <_>
      <maxWeakCount>9</maxWeakCount>
      <stageThreshold>-1.6806576251983643e+00</stageThreshold>
      <weakClassifiers>
        <_>
          <internalNodes>
            0 -1 114 -9.3580316752195358e-03</internalNodes>
          <leafValues>
            1.6129031777381897e-01 -9.1605168581008911e-01</leafValues></_>
        <_>
          <internalNodes>
            0 -1 131 6.3599189743399620e-03</internalNodes>
          <leafValues>
            -6.7197614908218384e-01 2.2378429770469666e-01</leafValues></_>
        <_>
          <internalNodes>
            0 -1 129 3.0701397918164730e-03</internalNodes>
          <leafValues>
            -4.0691015124320984e-01 4.9395504593849182e-01</leafValues></_>
        <_>
          <internalNodes>
            0 -1 12 7.5872287154197693e-02</internalNodes>
          <leafValues>
            -2.2866821289062500e-01 6.4842039346694946e-01</leafValues></_>
        <_>
          <internalNodes>
            0 -1 76 -4.4577019289135933e-03</internalNodes>
          <leafValues>
            -6.5556192398071289e-01 2.4844616651535034e-01</leafValues></_>
        <_>
          <internalNodes>
            0 -1 85 5.5786017328500748e-03</internalNodes>
          <leafValues>
            -1.8492922186851501e-01 6.3569730520248413e-01</leafValues></_>
        <_>
          <internalNodes>
            0 -1 71 1.5647888183593750e-02</internalNodes>
          <leafValues>
            1.8380278348922729e-01 -8.1054282188415527e-01</leafValues></_>
        <_>
          <internalNodes>
            0 -1 84 -4.9307718873023987e-03</internalNodes>
          <leafValues>
            5.9713792800903320e-01 -2.7554795145988464e-01</leafValues></_>
        <_>
          <internalNodes>
            0 -1 128 -6.3828551210463047e-03</internalNodes>
          <leafValues>
            5.7410180568695068e-01 -2.0802873373031616e-01</leafValues></_></weakClassifiers></_>
    <!-- stage 2 -->
    <_>
      <maxWeakCount>10</maxWeakCount>
      <stageThreshold>-2.0835270881652832e+00</stageThreshold>
      <weakClassifiers>
        <_>
          <internalNodes>
            0 -1 31 1.5688869357109070e-01</internalNodes>
          <leafValues>
            -9.2223805189132690e-01 -4.0000000596046448e-01</leafValues></_>
        <_>
          <internalNodes>
            0 -1 21 -8.6350701749324799e-02</internalNodes>
          <leafValues>
            -2.5431907176971436e-01 -8.0370992422103882e-01</leafValues></_>
        <_>
          <internalNodes>
            0 -1 70 2.6505421847105026e-02</internalNodes>
          <leafValues>
            -4.7913748025894165e-01 1.8532153964042664e-01</leafValues></_>
        <_>
          <internalNodes>
            0 -1 139 1.1805815156549215e-03</internalNodes>
          <leafValues>
            1.0239650309085846e-01 -8.8883692026138306e-01</leafValues></_>
        <_>
          <internalNodes>
            0 -1 138 -1.1065471917390823e-03</internalNodes>
          <leafValues>
            -7.2548323869705200e-01 1.4456087350845337e-01</leafValues></_>
        <_>
          <internalNodes>
            0 -1 77 -4.2741429060697556e-03</internalNodes>
          <leafValues>
            5.2197349071502686e-01 -2.1250100433826447e-01</leafValues></_>
        <_>
          <internalNodes>
            0 -1 40 1.0570571757853031e-03</internalNodes>
          <leafValues>
            1.9076450169086456e-01 -6.4412730932235718e-01</leafValues></_>
        <_>
          <internalNodes>
            0 -1 16 5.6303836405277252e-02</internalNodes>
          <leafValues>
            -2.1635204553604126e-01 5.4006838798522949e-01</leafValues></_>
        <_>
          <internalNodes>
            0 -1 93 1.0560062713921070e-02</internalNodes>
          <leafValues>
            1.6789242625236511e-01 -6.7293828725814819e-01</leafValues></_>
        <_>
          <internalNodes>
            0 -1 121 1.9726213067770004e-03</internalNodes>
          <leafValues>
            -2.7779909968376160e-01 4.0666967630386353e-01</leafValues></_></weakClassifiers></_>
    <!-- stage 3 -->
    <_>
      <maxWeakCount>8</maxWeakCount>
      <stageThreshold>-1.9795742034912109e+00</stageThreshold>
      <weakClassifiers>
        <_>
          <internalNodes>
            0 -1 48 9.7683072090148926e-02</internalNodes>
          <leafValues>
            -9.4739848375320435e-01 -7.2000002861022949e-01</leafValues></_>
        <_>
          <internalNodes>
            0 -1 34 1.1942166835069656e-02</internalNodes>
          <leafValues>
            -7.6045751571655273e-01 -2.5296959280967712e-01</leafValues></_>
        <_>
          <internalNodes>
            0 -1 79 -1.9688757136464119e-02</internalNodes>
          <leafValues>
            1.8173053860664368e-01 -4.9871408939361572e-01</leafValues></_>
        <_>
          <internalNodes>
            0 -1 4 1.8547433428466320e-03</internalNodes>
          <leafValues>
            1.6519969701766968e-01 -5.5711382627487183e-01</leafValues></_>
        <_>
          <internalNodes>
            0 -1 82 -2.3283552378416061e-02</internalNodes>
          <leafValues>
            -9.4596457481384277e-01 1.2988606095314026e-01</leafValues></_>
        <_>
          <internalNodes>
            0 -1 37 8.0376904224976897e-04</internalNodes>
          <leafValues>
            8.7048083543777466e-02 -8.7443262338638306e-01</leafValues></_>
        <_>
          <internalNodes>
            0 -1 102 2.5146375410258770e-03</internalNodes>
          <leafValues>
            -2.9056757688522339e-01 3.6497062444686890e-01</leafValues></_>
        <_>
          <internalNodes>
            0 -1 146 -8.5754634346812963e-04</internalNodes>
          <leafValues>
            -8.0253273248672485e-01 1.3542968034744263e-01</leafValues></_></weakClassifiers></_>
    <!-- stage 4 -->
    <_>
      <maxWeakCount>8</maxWeakCount>
      <stageThreshold>-1.9645693302154541e+00</stageThreshold>
      <weakClassifiers>
        <_>
          <internalNodes>
            0 -1 18 2.1227644383907318e-01</internalNodes>
          <leafValues>
            -9.3839383125305176e-01 -7.2178477048873901e-01</leafValues></_>
        <_>
          <internalNodes>
            0 -1 103 2.8595579788088799e-03</internalNodes>
          <leafValues>
            -6.4497274160385132e-01 4.0551096200942993e-02</leafValues></_>
        <_>
          <internalNodes>
            0 -1 53 9.7916405647993088e-03</internalNodes>
          <leafValues>
            -3.6600226163864136e-01 2.7299615740776062e-01</leafValues></_>
        <_>
          <internalNodes>
            0 -1 19 1.6481611877679825e-02</internalNodes>
          <leafValues>
            -4.2976379394531250e-01 2.5624188780784607e-01</leafValues></_>
        <_>
          <internalNodes>
            0 -1 32 -1.5890385210514069e-01</internalNodes>
          <leafValues>
            -1. 8.8138930499553680e-02</leafValues></_>
        <_>
          <internalNodes>
            0 -1 60 1.6125133261084557e-03</internalNodes>
          <leafValues>
            1.1721124500036240e-01 -7.4872714281082153e-01</leafValues></_>
        <_>
          <internalNodes>
            0 -1 74 -8.2077155821025372e-04</internalNodes>
          <leafValues>
            3.1656640768051147e-01 -2.8798744082450867e-01</leafValues></_>
        <_>
          <internalNodes>
            0 -1 27 -1.0413880227133632e-03</internalNodes>
          <leafValues>
            -7.4334669113159180e-01 1.1958678066730499e-01</leafValues></_></weakClassifiers></_>
    <!-- stage 5 -->
    <_>
      <maxWeakCount>11</maxWeakCount>
      <stageThreshold>-1.9523564577102661e+00</stageThreshold>
      <weakClassifiers>
        <_>
          <internalNodes>
            0 -1 8 -7.0679113268852234e-02</internalNodes>
          <leafValues>
            -3.1428572535514832e-01 -9.1035121679306030e-01</leafValues></_>
        <_>
          <internalNodes>
            0 -1 20 9.4991318881511688e-02</internalNodes>
          <leafValues>
            -6.9269347190856934e-01 -1.4509955048561096e-01</leafValues></_>
        <_>
          <internalNodes>
            0 -1 120 1.9934846088290215e-02</internalNodes>
          <leafValues>
            -4.2697739601135254e-01 2.0121669769287109e-01</leafValues></_>
        <_>
          <internalNodes>
            0 -1 65 7.9746823757886887e-03</internalNodes>
          <leafValues>
            -1.8365409970283508e-01 5.1753830909729004e-01</leafValues></_>
        <_>
          <internalNodes>
            0 -1 22 1.4153234660625458e-03</internalNodes>
          <leafValues>
            1.1976192146539688e-01 -7.2602891921997070e-01</leafValues></_>
        <_>
          <internalNodes>
            0 -1 118 -5.6581040844321251e-03</internalNodes>
          <leafValues>
            5.0133264064788818e-01 -1.3752925395965576e-01</leafValues></_>
        <_>
          <internalNodes>
            0 -1 118 3.5565677098929882e-03</internalNodes>
          <leafValues>
            -2.8179788589477539e-01 3.7379518151283264e-01</leafValues></_>
        <_>
          <internalNodes>
            0 -1 95 1.1392192915081978e-02</internalNodes>
          <leafValues>
            1.4947704970836639e-01 -5.4789245128631592e-01</leafValues></_>
        <_>
          <internalNodes>
            0 -1 141 -2.3020198568701744e-03</internalNodes>
          <leafValues>
            -7.9803979396820068e-01 1.1711496114730835e-01</leafValues></_>
        <_>
          <internalNodes>
            0 -1 123 8.1392824649810791e-03</internalNodes>
          <leafValues>
            1.0855125635862350e-01 -6.2613338232040405e-01</leafValues></_>
        <_>
          <internalNodes>
            0 -1 81 -2.7616195380687714e-02</internalNodes>
          <leafValues>
            7.3446786403656006e-01 -1.2143115699291229e-01</leafValues></_></weakClassifiers></_>
    <!-- stage 6 -->
    <_>
      <maxWeakCount>10</maxWeakCount>
      <stageThreshold>-2.1436233520507813e+00</stageThreshold>
      <weakClassifiers>
        <_>
          <internalNodes>
            0 -1 135 3.5299479961395264e-02</internalNodes>
          <leafValues>
            -9.0759378671646118e-01 2.3076923191547394e-01</leafValues></_>
        <_>
          <internalNodes>
            0 -1 28 1.5731242299079895e-01</internalNodes>
          <leafValues>
            -6.3792085647583008e-01 1.8294341862201691e-01</leafValues></_>
        <_>
          <internalNodes>
            0 -1 78 -3.6032497882843018e-04</internalNodes>
          <leafValues>
            2.8117239475250244e-01 -3.4207662940025330e-01</leafValues></_>
        <_>
          <internalNodes>
            0 -1 124 2.5685066357254982e-03</internalNodes>
          <leafValues>
            -3.6047419905662537e-01 2.6916471123695374e-01</leafValues></_>
        <_>
          <internalNodes>
            0 -1 145 1.4406566042453051e-03</internalNodes>
          <leafValues>
            1.9548062980175018e-01 -4.4712045788764954e-01</leafValues></_>
        <_>
          <internalNodes>
            0 -1 57 3.9439392276108265e-03</internalNodes>
          <leafValues>
            -1.8771021068096161e-01 4.8948210477828979e-01</leafValues></_>
        <_>
          <internalNodes>
            0 -1 107 -3.1410593539476395e-02</internalNodes>
          <leafValues>
            2.1158905327320099e-01 -4.1167622804641724e-01</leafValues></_>
        <_>
          <internalNodes>
            0 -1 126 3.1326927244663239e-02</internalNodes>
          <leafValues>
            -1.6455422341823578e-01 5.6010377407073975e-01</leafValues></_>
        <_>
          <internalNodes>
            0 -1 41 -6.1625875532627106e-03</internalNodes>
          <leafValues>
            -4.4183617830276489e-01 2.3593841493129730e-01</leafValues></_>
        <_>
          <internalNodes>
            0 -1 97 2.5661275722086430e-03</internalNodes>
          <leafValues>
            -2.2020645439624786e-01 4.1255295276641846e-01</leafValues></_></weakClassifiers></_>
    <!-- stage 7 -->
    <_>
      <maxWeakCount>9</maxWeakCount>
      <stageThreshold>-2.1999714374542236e+00</stageThreshold>
      <weakClassifiers>
        <_>
          <internalNodes>
            0 -1 87 3.0181587208062410e-03</internalNodes>
          <leafValues>
            -9.2338305711746216e-01 -6.6137564182281494e-01</leafValues></_>
        <_>
          <internalNodes>
            0 -1 11 6.2421202659606934e-02</internalNodes>
          <leafValues>
            -6.6393244266510010e-01 -1.1067627370357513e-01</leafValues></_>
        <_>
          <internalNodes>
            0 -1 5 1.0667717084288597e-02</internalNodes>
          <leafValues>
            6.7153245210647583e-02 -6.3534265756607056e-01</leafValues></_>
        <_>
          <internalNodes>
            0 -1 89 -4.5558201236417517e-05</internalNodes>
          <leafValues>
            1.6705697774887085e-01 -5.3640490770339966e-01</leafValues></_>
        <_>
          <internalNodes>
            0 -1 144 -9.3958247452974319e-04</internalNodes>
          <leafValues>
            -6.7834025621414185e-01 1.3496491312980652e-01</leafValues></_>
        <_>
          <internalNodes>
            0 -1 110 3.6564487963914871e-03</internalNodes>
          <leafValues>
            -1.8983158469200134e-01 4.4603207707405090e-01</leafValues></_>
        <_>
          <internalNodes>
            0 -1 109 4.6531865373253822e-03</internalNodes>
          <leafValues>
            -1.9526754319667816e-01 4.8897266387939453e-01</leafValues></_>
        <_>
          <internalNodes>
            0 -1 23 -8.8578392751514912e-04</internalNodes>
          <leafValues>
            -5.7010656595230103e-01 1.5612106025218964e-01</leafValues></_>
        <_>
          <internalNodes>
            0 -1 59 1.9873473793268204e-03</internalNodes>
          <leafValues>
            -1.3395690917968750e-01 6.3410234451293945e-01</leafValues></_></weakClassifiers></_>
    <!-- stage 8 -->
    <_>
      <maxWeakCount>10</maxWeakCount>
      <stageThreshold>-1.9337999820709229e+00</stageThreshold>
      <weakClassifiers>
        <_>
          <internalNodes>
            0 -1 3 3.7563532590866089e-01</internalNodes>
          <leafValues>
            -9.0346086025238037e-01 1.</leafValues></_>
        <_>
          <internalNodes>
            0 -1 142 1.2212116271257401e-03</internalNodes>
          <leafValues>
            -4.2503529787063599e-01 -9.1515290737152100e-01</leafValues></_>
        <_>
          <internalNodes>
            0 -1 7 1.8511828035116196e-02</internalNodes>
          <leafValues>
            -4.0984317660331726e-01 1.2611152231693268e-01</leafValues></_>
        <_>
          <internalNodes>
            0 -1 58 1.5640927013009787e-03</internalNodes>
          <leafValues>
            -2.1039544045925140e-01 3.4466665983200073e-01</leafValues></_>
        <_>
          <internalNodes>
            0 -1 25 4.8825540579855442e-04</internalNodes>
          <leafValues>
            1.3560798764228821e-01 -4.9836239218711853e-01</leafValues></_>
        <_>
          <internalNodes>
            0 -1 148 -4.1890767170116305e-04</internalNodes>
          <leafValues>
            -6.1717629432678223e-01 1.3015392422676086e-01</leafValues></_>
        <_>
          <internalNodes>
            0 -1 101 6.0060754185542464e-04</internalNodes>
          <leafValues>
            -2.1178413927555084e-01 3.4649166464805603e-01</leafValues></_>
        <_>
          <internalNodes>
            0 -1 63 1.4173593372106552e-02</internalNodes>
          <leafValues>
            1.0216411203145981e-01 -8.3098506927490234e-01</leafValues></_>
        <_>
          <internalNodes>
            0 -1 127 -1.2254018336534500e-02</internalNodes>
          <leafValues>
            3.3707016706466675e-01 -2.5363337993621826e-01</leafValues></_>
        <_>
          <internalNodes>
            0 -1 13 1.3520537177100778e-03</internalNodes>
          <leafValues>
            1.1242624372243881e-01 -7.4168354272842407e-01</leafValues></_></weakClassifiers></_>
    <!-- stage 9 -->
    <_>
      <maxWeakCount>8</maxWeakCount>
      <stageThreshold>-1.9063799381256104e+00</stageThreshold>
      <weakClassifiers>
        <_>
          <internalNodes>
            0 -1 15 -9.1905221343040466e-02</internalNodes>
          <leafValues>
            1. -9.0432798862457275e-01</leafValues></_>
        <_>
          <internalNodes>
            0 -1 111 3.6780452355742455e-03</internalNodes>
          <leafValues>
            -6.4410865306854248e-01 -1.0118619352579117e-01</leafValues></_>
        <_>
          <internalNodes>
            0 -1 80 -9.4235064461827278e-03</internalNodes>
          <leafValues>
            -8.1172257661819458e-01 5.0988648086786270e-02</leafValues></_>
        <_>
          <internalNodes>
            0 -1 122 3.6397454096004367e-04</internalNodes>
          <leafValues>
            -2.4186846613883972e-01 4.0040349960327148e-01</leafValues></_>
        <_>
          <internalNodes>
            0 -1 72 5.1664546132087708e-02</internalNodes>
          <leafValues>
            6.9678679108619690e-02 -9.7321879863739014e-01</leafValues></_>
        <_>
          <internalNodes>
            0 -1 1 -1.6324323415756226e-01</internalNodes>
          <leafValues>
            -9.1740173101425171e-01 7.3621638119220734e-02</leafValues></_>
        <_>
          <internalNodes>
            0 -1 52 2.7664000168442726e-02</internalNodes>
          <leafValues>
            1.4122292399406433e-01 -4.7064608335494995e-01</leafValues></_>
        <_>
          <internalNodes>
            0 -1 55 1.1426988244056702e-01</internalNodes>
          <leafValues>
            -1.8348689377307892e-01 4.8007100820541382e-01</leafValues></_></weakClassifiers></_>
    <!-- stage 10 -->
    <_>
      <maxWeakCount>9</maxWeakCount>
      <stageThreshold>-2.0022876262664795e+00</stageThreshold>
      <weakClassifiers>
        <_>
          <internalNodes>
            0 -1 36 -4.9435939639806747e-02</internalNodes>
          <leafValues>
            -2.4137930572032928e-01 -9.0967744588851929e-01</leafValues></_>
        <_>
          <internalNodes>
            0 -1 113 3.3839780371636152e-03</internalNodes>
          <leafValues>
            -6.4168572425842285e-01 -7.8514546155929565e-02</leafValues></_>
        <_>
          <internalNodes>
            0 -1 143 1.3112217420712113e-03</internalNodes>
          <leafValues>
            1.2437107972800732e-02 -8.2405066490173340e-01</leafValues></_>
        <_>
          <internalNodes>
            0 -1 104 1.2781767873093486e-03</internalNodes>
          <leafValues>
            -1.6758322715759277e-01 4.6974748373031616e-01</leafValues></_>
        <_>
          <internalNodes>
            0 -1 90 1.5354359056800604e-03</internalNodes>
          <leafValues>
            -3.2616969943046570e-01 2.5832995772361755e-01</leafValues></_>
        <_>
          <internalNodes>
            0 -1 73 -4.5230453833937645e-03</internalNodes>
          <leafValues>
            4.3694886565208435e-01 -1.7734359204769135e-01</leafValues></_>
        <_>
          <internalNodes>
            0 -1 29 -6.8165948614478111e-03</internalNodes>
          <leafValues>
            2.5298053026199341e-01 -2.9077196121215820e-01</leafValues></_>
        <_>
          <internalNodes>
            0 -1 108 1.7004832625389099e-03</internalNodes>
          <leafValues>
            -2.5077471137046814e-01 3.2176873087882996e-01</leafValues></_>
        <_>
          <internalNodes>
            0 -1 136 -4.8877461813390255e-04</internalNodes>
          <leafValues>
            -5.7335060834884644e-01 1.6478195786476135e-01</leafValues></_></weakClassifiers></_>
    <!-- stage 11 -->
    <_>
      <maxWeakCount>12</maxWeakCount>
      <stageThreshold>-1.9809249639511108e+00</stageThreshold>
      <weakClassifiers>
        <_>
          <internalNodes>
            0 -1 44 4.9138805270195007e-01</internalNodes>
          <leafValues>
            -9.0432798862457275e-01 1.</leafValues></_>
        <_>
          <internalNodes>
            0 -1 9 4.7082059085369110e-02</internalNodes>
          <leafValues>
            -6.4049899578094482e-01 -6.8519525229930878e-02</leafValues></_>
        <_>
          <internalNodes>
            0 -1 10 -2.6996690779924393e-02</internalNodes>
          <leafValues>
            5.5474787950515747e-01 -2.0954041182994843e-01</leafValues></_>
        <_>
          <internalNodes>
            0 -1 83 1.9977517426013947e-02</internalNodes>
          <leafValues>
            1.0250419378280640e-01 -8.6439627408981323e-01</leafValues></_>
        <_>
          <internalNodes>
            0 -1 105 1.4079969376325607e-02</internalNodes>
          <leafValues>
            -4.4811809062957764e-01 2.2903731465339661e-01</leafValues></_>
        <_>
          <internalNodes>
            0 -1 100 6.3256692374125123e-04</internalNodes>
          <leafValues>
            -2.4966849386692047e-01 3.2402336597442627e-01</leafValues></_>
        <_>
          <internalNodes>
            0 -1 88 1.0796413989737630e-03</internalNodes>
          <leafValues>
            -1.9480456411838531e-01 4.8234423995018005e-01</leafValues></_>
        <_>
          <internalNodes>
            0 -1 134 9.6183374989777803e-04</internalNodes>
          <leafValues>
            1.6869989037513733e-01 -4.8616597056388855e-01</leafValues></_>
        <_>
          <internalNodes>
            0 -1 64 7.5034815818071365e-03</internalNodes>
          <leafValues>
            -1.4009977877140045e-01 5.5403995513916016e-01</leafValues></_>
        <_>
          <internalNodes>
            0 -1 62 -2.5567060802131891e-03</internalNodes>
          <leafValues>
            5.5733519792556763e-01 -1.4063185453414917e-01</leafValues></_>
        <_>
          <internalNodes>
            0 -1 47 5.3124852478504181e-02</internalNodes>
          <leafValues>
            -1.5393424034118652e-01 5.7537007331848145e-01</leafValues></_>
        <_>
          <internalNodes>
            0 -1 147 -2.4485858157277107e-03</internalNodes>
          <leafValues>
            -5.6660628318786621e-01 1.5234661102294922e-01</leafValues></_></weakClassifiers></_>
    <!-- stage 12 -->
    <_>
      <maxWeakCount>12</maxWeakCount>
      <stageThreshold>-2.2038373947143555e+00</stageThreshold>
      <weakClassifiers>
        <_>
          <internalNodes>
            0 -1 2 -2.4441656470298767e-01</internalNodes>
          <leafValues>
            1.1111111193895340e-01 -9.0921592712402344e-01</leafValues></_>
        <_>
          <internalNodes>
            0 -1 51 4.2292000725865364e-03</internalNodes>
          <leafValues>
            -6.4678424596786499e-01 -1.5211039781570435e-01</leafValues></_>
        <_>
          <internalNodes>
            0 -1 130 -2.4176615988835692e-04</internalNodes>
          <leafValues>
            2.1150603890419006e-01 -3.0935674905776978e-01</leafValues></_>
        <_>
          <internalNodes>
            0 -1 24 4.3983064824715257e-04</internalNodes>
          <leafValues>
            1.3097162544727325e-01 -5.2905797958374023e-01</leafValues></_>
        <_>
          <internalNodes>
            0 -1 6 8.2768226275220513e-04</internalNodes>
          <leafValues>
            -2.4573391675949097e-01 3.2754641771316528e-01</leafValues></_>
        <_>
          <internalNodes>
            0 -1 43 -6.1317281797528267e-03</internalNodes>
          <leafValues>
            3.0766561627388000e-01 -2.9132375121116638e-01</leafValues></_>
        <_>
          <internalNodes>
            0 -1 45 3.0629662796854973e-04</internalNodes>
          <leafValues>
            1.4351591467857361e-01 -5.2081906795501709e-01</leafValues></_>
        <_>
          <internalNodes>
            0 -1 86 1.4831885928288102e-03</internalNodes>
          <leafValues>
            2.2615429759025574e-01 -3.3649486303329468e-01</leafValues></_>
        <_>
          <internalNodes>
            0 -1 137 4.8440197133459151e-05</internalNodes>
          <leafValues>
            -2.5761356949806213e-01 3.2066449522972107e-01</leafValues></_>
        <_>
          <internalNodes>
            0 -1 30 -5.0303264288231730e-05</internalNodes>
          <leafValues>
            2.7474424242973328e-01 -2.8789386153221130e-01</leafValues></_>
        <_>
          <internalNodes>
            0 -1 49 5.1836192607879639e-02</internalNodes>
          <leafValues>
            1.0253037512302399e-01 -7.6901394128799438e-01</leafValues></_>
        <_>
          <internalNodes>
            0 -1 38 8.6100545013323426e-04</internalNodes>
          <leafValues>
            1.0457229614257813e-01 -6.6587108373641968e-01</leafValues></_></weakClassifiers></_>
    <!-- stage 13 -->
    <_>
      <maxWeakCount>13</maxWeakCount>
      <stageThreshold>-1.9227483272552490e+00</stageThreshold>
      <weakClassifiers>
        <_>
          <internalNodes>
            0 -1 14 -1.4521127939224243e-01</internalNodes>
          <leafValues>
            1. -9.0606474876403809e-01</leafValues></_>
        <_>
          <internalNodes>
            0 -1 69 -4.0968898683786392e-03</internalNodes>
          <leafValues>
            -2.3129805922508240e-01 -6.5220141410827637e-01</leafValues></_>
        <_>
          <internalNodes>
            0 -1 91 -1.7731357365846634e-02</internalNodes>
          <leafValues>
            -9.1421341896057129e-01 9.3221571296453476e-03</leafValues></_>
        <_>
          <internalNodes>
            0 -1 61 5.0441104918718338e-02</internalNodes>
          <leafValues>
            1.1323697119951248e-01 -7.7130657434463501e-01</leafValues></_>
        <_>
          <internalNodes>
            0 -1 33 8.3534972509369254e-04</internalNodes>
          <leafValues>
            6.4482897520065308e-02 -8.0317342281341553e-01</leafValues></_>
        <_>
          <internalNodes>
            0 -1 133 1.1967703700065613e-02</internalNodes>
          <leafValues>
            -2.3212337493896484e-01 3.2799741625785828e-01</leafValues></_>
        <_>
          <internalNodes>
            0 -1 132 -4.6788200736045837e-02</internalNodes>
          <leafValues>
            6.4219027757644653e-01 -1.2364151328802109e-01</leafValues></_>
        <_>
          <internalNodes>
            0 -1 39 1.8570856191217899e-03</internalNodes>
          <leafValues>
            1.5500620007514954e-01 -6.2120640277862549e-01</leafValues></_>
        <_>
          <internalNodes>
            0 -1 106 2.7395719662308693e-03</internalNodes>
          <leafValues>
            -2.6820954680442810e-01 2.9249495267868042e-01</leafValues></_>
        <_>
          <internalNodes>
            0 -1 98 7.3018437251448631e-03</internalNodes>
          <leafValues>
            1.0627651959657669e-01 -7.6996451616287231e-01</leafValues></_>
        <_>
          <internalNodes>
            0 -1 67 6.1641242355108261e-03</internalNodes>
          <leafValues>
            -1.6794936358928680e-01 5.3359508514404297e-01</leafValues></_>
        <_>
          <internalNodes>
            0 -1 75 2.5302480207756162e-04</internalNodes>
          <leafValues>
            -2.6701343059539795e-01 2.8879028558731079e-01</leafValues></_>
        <_>
          <internalNodes>
            0 -1 35 -6.5099040511995554e-04</internalNodes>
          <leafValues>
            -3.1306159496307373e-01 2.4613034725189209e-01</leafValues></_></weakClassifiers></_>
    <!-- stage 14 -->
    <_>
      <maxWeakCount>15</maxWeakCount>
      <stageThreshold>-2.2792928218841553e+00</stageThreshold>
      <weakClassifiers>
        <_>
          <internalNodes>
            0 -1 0 -1.9392260909080505e-01</internalNodes>
          <leafValues>
            1. -9.0954774618148804e-01</leafValues></_>
        <_>
          <internalNodes>
            0 -1 112 -4.9693789333105087e-02</internalNodes>
          <leafValues>
            7.4116230010986328e-01 -5.8977395296096802e-01</leafValues></_>
        <_>
          <internalNodes>
            0 -1 17 -3.0874967342242599e-04</internalNodes>
          <leafValues>
            1.6888420283794403e-01 -4.4639989733695984e-01</leafValues></_>
        <_>
          <internalNodes>
            0 -1 96 -4.1462911758571863e-04</internalNodes>
          <leafValues>
            3.6553213000297546e-01 -2.6418519020080566e-01</leafValues></_>
        <_>
          <internalNodes>
            0 -1 92 -2.1306704729795456e-03</internalNodes>
          <leafValues>
            6.1202025413513184e-01 -1.6550791263580322e-01</leafValues></_>
        <_>
          <internalNodes>
            0 -1 140 1.9618612714111805e-03</internalNodes>
          <leafValues>
            2.3039896786212921e-01 -4.2184567451477051e-01</leafValues></_>
        <_>
          <internalNodes>
            0 -1 46 1.7373299226164818e-02</internalNodes>
          <leafValues>
            5.6049782037734985e-01 -1.6790804266929626e-01</leafValues></_>
        <_>
          <internalNodes>
            0 -1 42 1.8036449328064919e-02</internalNodes>
          <leafValues>
            -3.3291238546371460e-01 2.9592144489288330e-01</leafValues></_>
        <_>
          <internalNodes>
            0 -1 68 1.0267879115417600e-03</internalNodes>
          <leafValues>
            -2.0029693841934204e-01 4.8170277476310730e-01</leafValues></_>
        <_>
          <internalNodes>
            0 -1 99 -2.0533055067062378e-03</internalNodes>
          <leafValues>
            -4.8861414194107056e-01 2.1388123929500580e-01</leafValues></_>
        <_>
          <internalNodes>
            0 -1 117 -2.7789112646132708e-03</internalNodes>
          <leafValues>
            5.2477395534515381e-01 -2.2584725916385651e-01</leafValues></_>
        <_>
          <internalNodes>
            0 -1 116 6.6664577461779118e-03</internalNodes>
          <leafValues>
            -2.2246722877025604e-01 4.9608063697814941e-01</leafValues></_>
        <_>
          <internalNodes>
            0 -1 119 -1.9601669162511826e-02</internalNodes>
          <leafValues>
            -6.8726491928100586e-01 1.7207774519920349e-01</leafValues></_>
        <_>
          <internalNodes>
            0 -1 125 6.0459249652922153e-04</internalNodes>
          <leafValues>
            -2.4566033482551575e-01 4.9975353479385376e-01</leafValues></_>
        <_>
          <internalNodes>
            0 -1 66 -1.2830075575038791e-03</internalNodes>
          <leafValues>
            -4.9268928170204163e-01 2.6563450694084167e-01</leafValues></_></weakClassifiers></_></stages>
  <features>
    <_>
      <rects>
        <_>
          0 0 9 15 -1.</_>
        <_>
          0 5 9 5 3.</_></rects>
      <tilted>0</tilted></_>
    <_>
      <rects>
        <_>
          0 0 20 18 -1.</_>
        <_>
          0 0 10 9 2.</_>
        <_>
          10 9 10 9 2.</_></rects>
      <tilted>0</tilted></_>
    <_>
      <rects>
        <_>
          0 0 12 15 -1.</_>
        <_>
          0 5 12 5 3.</_></rects>
      <tilted>0</tilted></_>
    <_>
      <rects>
        <_>
          0 1 21 9 -1.</_>
        <_>
          0 4 21 3 3.</_></rects>
      <tilted>0</tilted></_>
    <_>
      <rects>
        <_>
          0 2 2 13 -1.</_>
        <_>
          1 2 1 13 2.</_></rects>
      <tilted>0</tilted></_>
    <_>
      <rects>
        <_>
          0 2 12 6 -1.</_>
        <_>
          4 2 4 6 3.</_></rects>
      <tilted>0</tilted></_>
    <_>
      <rects>
        <_>
          0 3 6 2 -1.</_>
        <_>
          0 4 6 1 2.</_></rects>
      <tilted>0</tilted></_>
    <_>
      <rects>
        <_>
          0 4 20 4 -1.</_>
        <_>
          0 6 20 2 2.</_></rects>
      <tilted>0</tilted></_>
    <_>
      <rects>
        <_>
          0 7 14 6 -1.</_>
        <_>
          7 7 7 6 2.</_></rects>
      <tilted>0</tilted></_>
    <_>
      <rects>
        <_>
          0 8 8 4 -1.</_>
        <_>
          4 8 4 4 2.</_></rects>
      <tilted>0</tilted></_>
    <_>
      <rects>
        <_>
          0 8 12 5 -1.</_>
        <_>
          6 8 6 5 2.</_></rects>
      <tilted>0</tilted></_>
    <_>
      <rects>
        <_>
          0 9 8 6 -1.</_>
        <_>
          4 9 4 6 2.</_></rects>
      <tilted>0</tilted></_>
    <_>
      <rects>
        <_>
          0 12 12 3 -1.</_>
        <_>
          6 12 6 3 2.</_></rects>
      <tilted>0</tilted></_>
    <_>
      <rects>
        <_>
          0 16 2 3 -1.</_>
        <_>
          0 17 2 1 3.</_></rects>
      <tilted>0</tilted></_>
    <_>
      <rects>
        <_>
          1 1 7 15 -1.</_>
        <_>
          1 6 7 5 3.</_></rects>
      <tilted>0</tilted></_>
    <_>
      <rects>
        <_>
          1 1 9 4 -1.</_>
        <_>
          1 3 9 2 2.</_></rects>
      <tilted>0</tilted></_>
    <_>
      <rects>
        <_>
          1 1 22 2 -1.</_>
        <_>
          12 1 11 2 2.</_></rects>
      <tilted>0</tilted></_>
    <_>
      <rects>
        <_>
          1 2 12 2 -1.</_>
        <_>
          5 2 4 2 3.</_></rects>
      <tilted>0</tilted></_>
    <_>
      <rects>
        <_>
          1 5 12 12 -1.</_>
        <_>
          7 5 6 12 2.</_></rects>
      <tilted>0</tilted></_>
    <_>
      <rects>
        <_>
          1 5 8 12 -1.</_>
        <_>
          1 9 8 4 3.</_></rects>
      <tilted>0</tilted></_>
    <_>
      <rects>
        <_>
          1 8 12 5 -1.</_>
        <_>
          7 8 6 5 2.</_></rects>
      <tilted>0</tilted></_>
    <_>
      <rects>
        <_>
          1 8 16 12 -1.</_>
        <_>
          1 14 16 6 2.</_></rects>
      <tilted>0</tilted></_>
    <_>
      <rects>
        <_>
          1 10 4 2 -1.</_>
        <_>
          1 10 2 1 2.</_>
        <_>
          3 11 2 1 2.</_></rects>
      <tilted>0</tilted></_>
    <_>
      <rects>
        <_>
          1 11 2 2 -1.</_>
        <_>
          1 12 2 1 2.</_></rects>
      <tilted>0</tilted></_>
    <_>
      <rects>
        <_>
          1 11 2 3 -1.</_>
        <_>
          1 12 2 1 3.</_></rects>
      <tilted>0</tilted></_>
    <_>
      <rects>
        <_>
          1 12 2 3 -1.</_>
        <_>
          1 13 2 1 3.</_></rects>
      <tilted>0</tilted></_>
    <_>
      <rects>
        <_>
          1 12 18 5 -1.</_>
        <_>
          7 12 6 5 3.</_></rects>
      <tilted>0</tilted></_>
    <_>
      <rects>
        <_>
          1 13 2 4 -1.</_>
        <_>
          1 13 1 2 2.</_>
        <_>
          2 15 1 2 2.</_></rects>
      <tilted>0</tilted></_>
    <_>
      <rects>
        <_>
          1 14 18 5 -1.</_>
        <_>
          7 14 6 5 3.</_></rects>
      <tilted>0</tilted></_>
    <_>
      <rects>
        <_>
          1 16 13 4 -1.</_>
        <_>
          1 18 13 2 2.</_></rects>
      <tilted>0</tilted></_>
    <_>
      <rects>
        <_>
          1 18 2 2 -1.</_>
        <_>
          2 18 1 2 2.</_></rects>
      <tilted>0</tilted></_>
    <_>
      <rects>
        <_>
          2 0 22 4 -1.</_>
        <_>
          13 0 11 4 2.</_></rects>
      <tilted>0</tilted></_>
    <_>
      <rects>
        <_>
          2 3 22 15 -1.</_>
        <_>
          13 3 11 15 2.</_></rects>
      <tilted>0</tilted></_>
    <_>
      <rects>
        <_>
          2 4 2 1 -1.</_>
        <_>
          3 4 1 1 2.</_></rects>
      <tilted>0</tilted></_>
    <_>
      <rects>
        <_>
          2 4 11 4 -1.</_>
        <_>
          2 6 11 2 2.</_></rects>
      <tilted>0</tilted></_>
    <_>
      <rects>
        <_>
          2 5 9 4 -1.</_>
        <_>
          5 5 3 4 3.</_></rects>
      <tilted>0</tilted></_>
    <_>
      <rects>
        <_>
          2 6 10 6 -1.</_>
        <_>
          7 6 5 6 2.</_></rects>
      <tilted>0</tilted></_>
    <_>
      <rects>
        <_>
          2 11 1 3 -1.</_>
        <_>
          2 12 1 1 3.</_></rects>
      <tilted>0</tilted></_>
    <_>
      <rects>
        <_>
          2 13 2 3 -1.</_>
        <_>
          2 14 2 1 3.</_></rects>
      <tilted>0</tilted></_>
    <_>
      <rects>
        <_>
          2 13 2 4 -1.</_>
        <_>
          2 15 2 2 2.</_></rects>
      <tilted>0</tilted></_>
    <_>
      <rects>
        <_>
          2 14 2 5 -1.</_>
        <_>
          3 14 1 5 2.</_></rects>
      <tilted>0</tilted></_>
    <_>
      <rects>
        <_>
          2 17 21 2 -1.</_>
        <_>
          9 17 7 2 3.</_></rects>
      <tilted>0</tilted></_>
    <_>
      <rects>
        <_>
          3 0 8 10 -1.</_>
        <_>
          3 0 4 5 2.</_>
        <_>
          7 5 4 5 2.</_></rects>
      <tilted>0</tilted></_>
    <_>
      <rects>
        <_>
          3 2 6 6 -1.</_>
        <_>
          3 4 6 2 3.</_></rects>
      <tilted>0</tilted></_>
    <_>
      <rects>
        <_>
          3 5 13 15 -1.</_>
        <_>
          3 10 13 5 3.</_></rects>
      <tilted>0</tilted></_>
    <_>
      <rects>
        <_>
          3 18 2 1 -1.</_>
        <_>
          4 18 1 1 2.</_></rects>
      <tilted>0</tilted></_>
    <_>
      <rects>
        <_>
          4 0 14 14 -1.</_>
        <_>
          11 0 7 14 2.</_></rects>
      <tilted>0</tilted></_>
    <_>
      <rects>
        <_>
          4 0 18 2 -1.</_>
        <_>
          13 0 9 2 2.</_></rects>
      <tilted>0</tilted></_>
    <_>
      <rects>
        <_>
          4 1 8 14 -1.</_>
        <_>
          4 8 8 7 2.</_></rects>
      <tilted>0</tilted></_>
    <_>
      <rects>
        <_>
          4 6 9 6 -1.</_>
        <_>
          7 6 3 6 3.</_></rects>
      <tilted>0</tilted></_>
    <_>
      <rects>
        <_>
          4 7 3 9 -1.</_>
        <_>
          5 7 1 9 3.</_></rects>
      <tilted>0</tilted></_>
    <_>
      <rects>
        <_>
          4 13 6 4 -1.</_>
        <_>
          4 13 3 2 2.</_>
        <_>
          7 15 3 2 2.</_></rects>
      <tilted>0</tilted></_>
    <_>
      <rects>
        <_>
          4 15 18 5 -1.</_>
        <_>
          10 15 6 5 3.</_></rects>
      <tilted>0</tilted></_>
    <_>
      <rects>
        <_>
          5 2 7 4 -1.</_>
        <_>
          5 4 7 2 2.</_></rects>
      <tilted>0</tilted></_>
    <_>
      <rects>
        <_>
          5 6 12 6 -1.</_>
        <_>
          9 6 4 6 3.</_></rects>
      <tilted>0</tilted></_>
    <_>
      <rects>
        <_>
          5 6 12 13 -1.</_>
        <_>
          9 6 4 13 3.</_></rects>
      <tilted>0</tilted></_>
    <_>
      <rects>
        <_>
          5 7 2 11 -1.</_>
        <_>
          6 7 1 11 2.</_></rects>
      <tilted>0</tilted></_>
    <_>
      <rects>
        <_>
          5 11 12 2 -1.</_>
        <_>
          5 12 12 1 2.</_></rects>
      <tilted>0</tilted></_>
    <_>
      <rects>
        <_>
          6 0 8 2 -1.</_>
        <_>
          6 0 4 1 2.</_>
        <_>
          10 1 4 1 2.</_></rects>
      <tilted>0</tilted></_>
    <_>
      <rects>
        <_>
          6 9 2 2 -1.</_>
        <_>
          6 9 1 1 2.</_>
        <_>
          7 10 1 1 2.</_></rects>
      <tilted>0</tilted></_>
    <_>
      <rects>
        <_>
          7 0 3 4 -1.</_>
        <_>
          8 0 1 4 3.</_></rects>
      <tilted>0</tilted></_>
    <_>
      <rects>
        <_>
          7 3 16 14 -1.</_>
        <_>
          7 3 8 7 2.</_>
        <_>
          15 10 8 7 2.</_></rects>
      <tilted>0</tilted></_>
    <_>
      <rects>
        <_>
          7 5 1 4 -1.</_>
        <_>
          7 7 1 2 2.</_></rects>
      <tilted>0</tilted></_>
    <_>
      <rects>
        <_>
          7 5 17 3 -1.</_>
        <_>
          7 6 17 1 3.</_></rects>
      <tilted>0</tilted></_>
    <_>
      <rects>
        <_>
          7 8 6 3 -1.</_>
        <_>
          7 9 6 1 3.</_></rects>
      <tilted>0</tilted></_>
    <_>
      <rects>
        <_>
          7 8 12 2 -1.</_>
        <_>
          7 8 6 1 2.</_>
        <_>
          13 9 6 1 2.</_></rects>
      <tilted>0</tilted></_>
    <_>
      <rects>
        <_>
          7 9 9 4 -1.</_>
        <_>
          10 9 3 4 3.</_></rects>
      <tilted>0</tilted></_>
    <_>
      <rects>
        <_>
          7 10 5 3 -1.</_>
        <_>
          7 11 5 1 3.</_></rects>
      <tilted>0</tilted></_>
    <_>
      <rects>
        <_>
          7 11 2 2 -1.</_>
        <_>
          7 12 2 1 2.</_></rects>
      <tilted>0</tilted></_>
    <_>
      <rects>
        <_>
          8 1 2 14 -1.</_>
        <_>
          8 1 1 7 2.</_>
        <_>
          9 8 1 7 2.</_></rects>
      <tilted>0</tilted></_>
    <_>
      <rects>
        <_>
          8 2 13 6 -1.</_>
        <_>
          8 5 13 3 2.</_></rects>
      <tilted>0</tilted></_>
    <_>
      <rects>
        <_>
          8 4 4 8 -1.</_>
        <_>
          10 4 2 8 2.</_></rects>
      <tilted>0</tilted></_>
    <_>
      <rects>
        <_>
          8 5 9 10 -1.</_>
        <_>
          11 5 3 10 3.</_></rects>
      <tilted>0</tilted></_>
    <_>
      <rects>
        <_>
          8 6 3 7 -1.</_>
        <_>
          9 6 1 7 3.</_></rects>
      <tilted>0</tilted></_>
    <_>
      <rects>
        <_>
          8 6 6 2 -1.</_>
        <_>
          8 6 3 1 2.</_>
        <_>
          11 7 3 1 2.</_></rects>
      <tilted>0</tilted></_>
    <_>
      <rects>
        <_>
          8 7 3 1 -1.</_>
        <_>
          9 7 1 1 3.</_></rects>
      <tilted>0</tilted></_>
    <_>
      <rects>
        <_>
          8 8 8 4 -1.</_>
        <_>
          12 8 4 4 2.</_></rects>
      <tilted>0</tilted></_>
    <_>
      <rects>
        <_>
          8 9 3 5 -1.</_>
        <_>
          9 9 1 5 3.</_></rects>
      <tilted>0</tilted></_>
    <_>
      <rects>
        <_>
          8 12 2 2 -1.</_>
        <_>
          8 12 1 1 2.</_>
        <_>
          9 13 1 1 2.</_></rects>
      <tilted>0</tilted></_>
    <_>
      <rects>
        <_>
          8 13 7 6 -1.</_>
        <_>
          8 16 7 3 2.</_></rects>
      <tilted>0</tilted></_>
    <_>
      <rects>
        <_>
          9 1 4 18 -1.</_>
        <_>
          11 1 2 18 2.</_></rects>
      <tilted>0</tilted></_>
    <_>
      <rects>
        <_>
          9 3 3 10 -1.</_>
        <_>
          9 8 3 5 2.</_></rects>
      <tilted>0</tilted></_>
    <_>
      <rects>
        <_>
          9 3 8 8 -1.</_>
        <_>
          13 3 4 8 2.</_></rects>
      <tilted>0</tilted></_>
    <_>
      <rects>
        <_>
          9 6 6 7 -1.</_>
        <_>
          12 6 3 7 2.</_></rects>
      <tilted>0</tilted></_>
    <_>
      <rects>
        <_>
          9 8 3 7 -1.</_>
        <_>
          10 8 1 7 3.</_></rects>
      <tilted>0</tilted></_>
    <_>
      <rects>
        <_>
          9 9 3 6 -1.</_>
        <_>
          10 9 1 6 3.</_></rects>
      <tilted>0</tilted></_>
    <_>
      <rects>
        <_>
          9 10 4 10 -1.</_>
        <_>
          11 10 2 10 2.</_></rects>
      <tilted>0</tilted></_>
    <_>
      <rects>
        <_>
          9 13 3 1 -1.</_>
        <_>
          10 13 1 1 3.</_></rects>
      <tilted>0</tilted></_>
    <_>
      <rects>
        <_>
          9 13 2 2 -1.</_>
        <_>
          9 13 1 1 2.</_>
        <_>
          10 14 1 1 2.</_></rects>
      <tilted>0</tilted></_>
    <_>
      <rects>
        <_>
          9 14 2 4 -1.</_>
        <_>
          9 16 2 2 2.</_></rects>
      <tilted>0</tilted></_>
    <_>
      <rects>
        <_>
          10 0 2 13 -1.</_>
        <_>
          11 0 1 13 2.</_></rects>
      <tilted>0</tilted></_>
    <_>
      <rects>
        <_>
          10 3 4 13 -1.</_>
        <_>
          12 3 2 13 2.</_></rects>
      <tilted>0</tilted></_>
    <_>
      <rects>
        <_>
          10 4 3 4 -1.</_>
        <_>
          11 4 1 4 3.</_></rects>
      <tilted>0</tilted></_>
    <_>
      <rects>
        <_>
          10 7 6 12 -1.</_>
        <_>
          13 7 3 12 2.</_></rects>
      <tilted>0</tilted></_>
    <_>
      <rects>
        <_>
          10 8 3 4 -1.</_>
        <_>
          11 8 1 4 3.</_></rects>
      <tilted>0</tilted></_>
    <_>
      <rects>
        <_>
          10 10 9 8 -1.</_>
        <_>
          13 10 3 8 3.</_></rects>
      <tilted>0</tilted></_>
    <_>
      <rects>
        <_>
          10 12 2 2 -1.</_>
        <_>
          10 12 1 1 2.</_>
        <_>
          11 13 1 1 2.</_></rects>
      <tilted>0</tilted></_>
    <_>
      <rects>
        <_>
          11 5 2 14 -1.</_>
        <_>
          11 5 1 7 2.</_>
        <_>
          12 12 1 7 2.</_></rects>
      <tilted>0</tilted></_>
    <_>
      <rects>
        <_>
          11 5 4 4 -1.</_>
        <_>
          13 5 2 4 2.</_></rects>
      <tilted>0</tilted></_>
    <_>
      <rects>
        <_>
          11 5 4 7 -1.</_>
        <_>
          13 5 2 7 2.</_></rects>
      <tilted>0</tilted></_>
    <_>
      <rects>
        <_>
          11 6 2 4 -1.</_>
        <_>
          12 6 1 4 2.</_></rects>
      <tilted>0</tilted></_>
    <_>
      <rects>
        <_>
          11 8 2 2 -1.</_>
        <_>
          11 8 1 1 2.</_>
        <_>
          12 9 1 1 2.</_></rects>
      <tilted>0</tilted></_>
    <_>
      <rects>
        <_>
          11 9 10 2 -1.</_>
        <_>
          11 10 10 1 2.</_></rects>
      <tilted>0</tilted></_>
    <_>
      <rects>
        <_>
          11 11 2 4 -1.</_>
        <_>
          11 11 1 2 2.</_>
        <_>
          12 13 1 2 2.</_></rects>
      <tilted>0</tilted></_>
    <_>
      <rects>
        <_>
          11 12 3 1 -1.</_>
        <_>
          12 12 1 1 3.</_></rects>
      <tilted>0</tilted></_>
    <_>
      <rects>
        <_>
          12 0 11 10 -1.</_>
        <_>
          12 5 11 5 2.</_></rects>
      <tilted>0</tilted></_>
    <_>
      <rects>
        <_>
          12 1 2 11 -1.</_>
        <_>
          13 1 1 11 2.</_></rects>
      <tilted>0</tilted></_>
    <_>
      <rects>
        <_>
          12 4 9 16 -1.</_>
        <_>
          12 12 9 8 2.</_></rects>
      <tilted>0</tilted></_>
    <_>
      <rects>
        <_>
          12 5 4 3 -1.</_>
        <_>
          12 6 4 1 3.</_></rects>
      <tilted>0</tilted></_>
    <_>
      <rects>
        <_>
          12 7 4 3 -1.</_>
        <_>
          12 8 4 1 3.</_></rects>
      <tilted>0</tilted></_>
    <_>
      <rects>
        <_>
          12 7 8 2 -1.</_>
        <_>
          12 7 4 1 2.</_>
        <_>
          16 8 4 1 2.</_></rects>
      <tilted>0</tilted></_>
    <_>
      <rects>
        <_>
          12 8 3 4 -1.</_>
        <_>
          13 8 1 4 3.</_></rects>
      <tilted>0</tilted></_>
    <_>
      <rects>
        <_>
          12 8 7 9 -1.</_>
        <_>
          12 11 7 3 3.</_></rects>
      <tilted>0</tilted></_>
    <_>
      <rects>
        <_>
          12 9 3 4 -1.</_>
        <_>
          13 9 1 4 3.</_></rects>
      <tilted>0</tilted></_>
    <_>
      <rects>
        <_>
          12 10 2 6 -1.</_>
        <_>
          12 10 1 3 2.</_>
        <_>
          13 13 1 3 2.</_></rects>
      <tilted>0</tilted></_>
    <_>
      <rects>
        <_>
          12 11 3 8 -1.</_>
        <_>
          12 15 3 4 2.</_></rects>
      <tilted>0</tilted></_>
    <_>
      <rects>
        <_>
          13 0 3 12 -1.</_>
        <_>
          14 0 1 12 3.</_></rects>
      <tilted>0</tilted></_>
    <_>
      <rects>
        <_>
          13 2 3 8 -1.</_>
        <_>
          14 2 1 8 3.</_></rects>
      <tilted>0</tilted></_>
    <_>
      <rects>
        <_>
          13 2 3 12 -1.</_>
        <_>
          14 2 1 12 3.</_></rects>
      <tilted>0</tilted></_>
    <_>
      <rects>
        <_>
          13 6 6 8 -1.</_>
        <_>
          16 6 3 8 2.</_></rects>
      <tilted>0</tilted></_>
    <_>
      <rects>
        <_>
          13 9 10 10 -1.</_>
        <_>
          13 9 5 5 2.</_>
        <_>
          18 14 5 5 2.</_></rects>
      <tilted>0</tilted></_>
    <_>
      <rects>
        <_>
          13 11 3 2 -1.</_>
        <_>
          14 11 1 2 3.</_></rects>
      <tilted>0</tilted></_>
    <_>
      <rects>
        <_>
          13 12 2 1 -1.</_>
        <_>
          14 12 1 1 2.</_></rects>
      <tilted>0</tilted></_>
    <_>
      <rects>
        <_>
          14 3 4 12 -1.</_>
        <_>
          16 3 2 12 2.</_></rects>
      <tilted>0</tilted></_>
    <_>
      <rects>
        <_>
          14 6 6 4 -1.</_>
        <_>
          14 8 6 2 2.</_></rects>
      <tilted>0</tilted></_>
    <_>
      <rects>
        <_>
          14 7 2 2 -1.</_>
        <_>
          14 7 1 1 2.</_>
        <_>
          15 8 1 1 2.</_></rects>
      <tilted>0</tilted></_>
    <_>
      <rects>
        <_>
          14 10 10 6 -1.</_>
        <_>
          19 10 5 6 2.</_></rects>
      <tilted>0</tilted></_>
    <_>
      <rects>
        <_>
          15 13 5 6 -1.</_>
        <_>
          15 15 5 2 3.</_></rects>
      <tilted>0</tilted></_>
    <_>
      <rects>
        <_>
          16 2 3 12 -1.</_>
        <_>
          17 2 1 12 3.</_></rects>
      <tilted>0</tilted></_>
    <_>
      <rects>
        <_>
          16 6 3 5 -1.</_>
        <_>
          17 6 1 5 3.</_></rects>
      <tilted>0</tilted></_>
    <_>
      <rects>
        <_>
          16 8 1 3 -1.</_>
        <_>
          16 9 1 1 3.</_></rects>
      <tilted>0</tilted></_>
    <_>
      <rects>
        <_>
          17 6 3 7 -1.</_>
        <_>
          18 6 1 7 3.</_></rects>
      <tilted>0</tilted></_>
    <_>
      <rects>
        <_>
          18 4 6 15 -1.</_>
        <_>
          21 4 3 15 2.</_></rects>
      <tilted>0</tilted></_>
    <_>
      <rects>
        <_>
          18 5 6 15 -1.</_>
        <_>
          21 5 3 15 2.</_></rects>
      <tilted>0</tilted></_>
    <_>
      <rects>
        <_>
          19 2 3 2 -1.</_>
        <_>
          19 3 3 1 2.</_></rects>
      <tilted>0</tilted></_>
    <_>
      <rects>
        <_>
          19 3 1 12 -1.</_>
        <_>
          19 7 1 4 3.</_></rects>
      <tilted>0</tilted></_>
    <_>
      <rects>
        <_>
          20 2 1 3 -1.</_>
        <_>
          20 3 1 1 3.</_></rects>
      <tilted>0</tilted></_>
    <_>
      <rects>
        <_>
          20 11 4 2 -1.</_>
        <_>
          20 12 4 1 2.</_></rects>
      <tilted>0</tilted></_>
    <_>
      <rects>
        <_>
          20 16 2 2 -1.</_>
        <_>
          20 17 2 1 2.</_></rects>
      <tilted>0</tilted></_>
    <_>
      <rects>
        <_>
          21 3 1 2 -1.</_>
        <_>
          21 4 1 1 2.</_></rects>
      <tilted>0</tilted></_>
    <_>
      <rects>
        <_>
          22 3 2 8 -1.</_>
        <_>
          22 7 2 4 2.</_></rects>
      <tilted>0</tilted></_>
    <_>
      <rects>
        <_>
          22 7 2 3 -1.</_>
        <_>
          22 8 2 1 3.</_></rects>
      <tilted>0</tilted></_>
    <_>
      <rects>
        <_>
          22 10 1 4 -1.</_>
        <_>
          22 12 1 2 2.</_></rects>
      <tilted>0</tilted></_>
    <_>
      <rects>
        <_>
          22 17 2 2 -1.</_>
        <_>
          23 17 1 2 2.</_></rects>
      <tilted>0</tilted></_>
    <_>
      <rects>
        <_>
          22 17 2 3 -1.</_>
        <_>
          23 17 1 3 2.</_></rects>
      <tilted>0</tilted></_>
    <_>
      <rects>
        <_>
          23 3 1 8 -1.</_>
        <_>
          23 7 1 4 2.</_></rects>
      <tilted>0</tilted></_>
    <_>
      <rects>
        <_>
          23 6 1 3 -1.</_>
        <_>
          23 7 1 1 3.</_></rects>
      <tilted>0</tilted></_>
    <_>
      <rects>
        <_>
          23 6 1 9 -1.</_>
        <_>
          23 9 1 3 3.</_></rects>
      <tilted>0</tilted></_>
    <_>
      <rects>
        <_>
          23 16 1 2 -1.</_>
        <_>
          23 17 1 1 2.</_></rects>
      <tilted>0</tilted></_></features></cascade>
</opencv_storage>
