<?xml version="1.0"?>
<opencv_storage>
<stage7>
  <maxWeakCount>13</maxWeakCount>
  <stageThreshold>-2.0523047447204590e+00</stageThreshold>
  <weakClassifiers>
    <_>
      <internalNodes>
        0 -1 26406 -3.7385158240795135e-02</internalNodes>
      <leafValues>
        5.5201697349548340e-01 -8.4833657741546631e-01</leafValues></_>
    <_>
      <internalNodes>
        0 -1 112149 9.0937362983822823e-03</internalNodes>
      <leafValues>
        -6.3925969600677490e-01 4.6030065417289734e-01</leafValues></_>
    <_>
      <internalNodes>
        0 -1 138 2.8428964316844940e-02</internalNodes>
      <leafValues>
        -2.6449754834175110e-01 6.7109781503677368e-01</leafValues></_>
    <_>
      <internalNodes>
        0 -1 43 2.4085231125354767e-03</internalNodes>
      <leafValues>
        2.5697684288024902e-01 -5.5150842666625977e-01</leafValues></_>
    <_>
      <internalNodes>
        0 -1 57878 3.1440805643796921e-02</internalNodes>
      <leafValues>
        -5.6236815452575684e-01 2.2904911637306213e-01</leafValues></_>
    <_>
      <internalNodes>
        0 -1 109577 -8.4116228390485048e-04</internalNodes>
      <leafValues>
        -7.8978002071380615e-01 7.7329225838184357e-02</leafValues></_>
    <_>
      <internalNodes>
        0 -1 7875 -2.9784461483359337e-02</internalNodes>
      <leafValues>
        4.5882517099380493e-01 -2.2841054201126099e-01</leafValues></_>
    <_>
      <internalNodes>
        0 -1 112728 4.0635084587847814e-05</internalNodes>
      <leafValues>
        -3.5546764731407166e-01 3.2825708389282227e-01</leafValues></_>
    <_>
      <internalNodes>
        0 -1 102459 2.2672867402434349e-02</internalNodes>
      <leafValues>
        -3.2797142863273621e-01 3.7371018528938293e-01</leafValues></_>
    <_>
      <internalNodes>
        0 -1 96790 4.3704058043658733e-05</internalNodes>
      <leafValues>
        -4.2904531955718994e-01 2.3425929248332977e-01</leafValues></_>
    <_>
      <internalNodes>
        0 -1 707 4.6571165323257446e-01</internalNodes>
      <leafValues>
        -1.6199071705341339e-01 7.6974743604660034e-01</leafValues></_>
    <_>
      <internalNodes>
        0 -1 83384 9.4759929925203323e-04</internalNodes>
      <leafValues>
        -1.7381060123443604e-01 5.3335189819335938e-01</leafValues></_>
    <_>
      <internalNodes>
        0 -1 65308 2.9559548944234848e-02</internalNodes>
      <leafValues>
        1.4982545375823975e-01 -8.5080671310424805e-01</leafValues></_></weakClassifiers></stage7>
</opencv_storage>
