<?xml version="1.0"?>
<opencv_storage>
<stage9>
  <maxWeakCount>11</maxWeakCount>
  <stageThreshold>-1.9569126367568970e+00</stageThreshold>
  <weakClassifiers>
    <_>
      <internalNodes>
        0 -1 5379 1.4737782068550587e-02</internalNodes>
      <leafValues>
        -8.0853080749511719e-01 5.6164383888244629e-01</leafValues></_>
    <_>
      <internalNodes>
        0 -1 111254 3.8845017552375793e-03</internalNodes>
      <leafValues>
        -6.6826629638671875e-01 4.3789181113243103e-01</leafValues></_>
    <_>
      <internalNodes>
        0 -1 112054 4.8667658120393753e-05</internalNodes>
      <leafValues>
        -5.4086643457412720e-01 2.7205908298492432e-01</leafValues></_>
    <_>
      <internalNodes>
        0 -1 78401 -5.8248355984687805e-02</internalNodes>
      <leafValues>
        2.2760336101055145e-01 -6.7766195535659790e-01</leafValues></_>
    <_>
      <internalNodes>
        0 -1 112696 -1.8320152594242245e-04</internalNodes>
      <leafValues>
        -6.3592243194580078e-01 2.0772676169872284e-01</leafValues></_>
    <_>
      <internalNodes>
        0 -1 97560 3.5299092996865511e-04</internalNodes>
      <leafValues>
        -4.6782806515693665e-01 2.3537519574165344e-01</leafValues></_>
    <_>
      <internalNodes>
        0 -1 112782 -9.1717869509011507e-04</internalNodes>
      <leafValues>
        -8.9693003892898560e-01 1.2244103848934174e-01</leafValues></_>
    <_>
      <internalNodes>
        0 -1 112696 7.2325063229072839e-05</internalNodes>
      <leafValues>
        2.0283111929893494e-01 -4.7974964976310730e-01</leafValues></_>
    <_>
      <internalNodes>
        0 -1 92187 1.2869001366198063e-03</internalNodes>
      <leafValues>
        -2.1535408496856689e-01 6.0433614253997803e-01</leafValues></_>
    <_>
      <internalNodes>
        0 -1 88444 2.1330802701413631e-03</internalNodes>
      <leafValues>
        -1.6434000432491302e-01 5.9728884696960449e-01</leafValues></_>
    <_>
      <internalNodes>
        0 -1 18009 -3.2550853211432695e-04</internalNodes>
      <leafValues>
        2.8811672329902649e-01 -3.7672096490859985e-01</leafValues></_></weakClassifiers></stage9>
</opencv_storage>
